<?xml version="1.0"?>
<opencv_storage>
<opencv_ml_svm>
  <format>3</format>
  <svmType>C_SVC</svmType>
  <kernel>
    <type>LINEAR</type></kernel>
  <C>1.</C>
  <term_criteria><iterations>100</iterations></term_criteria>
  <var_count>128</var_count>
  <class_count>10</class_count>
  <class_labels type_id="opencv-matrix">
    <rows>10</rows>
    <cols>1</cols>
    <dt>i</dt>
    <data>
      0 1 2 3 4 5 6 7 8 9</data></class_labels>
  <sv_total>45</sv_total>
  <support_vectors>
    <_>
      2.25173586e-04 4.56412090e-05 -1.30721950e-04 -1.91357118e-04
      1.78312024e-04 1.49079104e-04 6.90547022e-05 -1.09882705e-04
      8.40832508e-05 -1.62314856e-04 -3.31714618e-05 6.72952738e-05
      -1.08303484e-05 -9.85187435e-05 1.59071380e-04 1.01326004e-04
      1.08907196e-04 -1.87756450e-04 -1.09307097e-04 2.71655590e-05
      2.10666345e-04 5.50087716e-05 -2.11204970e-05 -2.70668806e-05
      6.95278140e-05 6.17437618e-05 -7.84486401e-05 -2.99206695e-05
      1.07483203e-04 -3.67265602e-05 -1.58782888e-04 1.31420529e-04
      4.77307003e-05 -7.15260830e-05 -2.06098633e-07 2.22767369e-04
      -1.98459111e-05 2.54862360e-04 -1.44071828e-05 4.54269648e-05
      -1.04957086e-04 -1.18041098e-04 -1.05108709e-04 -3.09477514e-06
      1.01660451e-04 -5.48626895e-06 4.59481380e-05 -1.39214724e-04
      -1.13884518e-04 -5.63193680e-06 1.36015617e-04 -3.23683416e-05
      -1.37589577e-05 -1.38701826e-05 -4.32464876e-05 5.74694641e-05
      -1.30914792e-04 5.80682863e-05 -3.07940682e-05 -3.82677208e-05
      5.14958592e-05 -2.08114900e-04 -8.33712620e-05 -3.26689660e-05
      1.23669772e-04 -1.55684786e-04 -1.16525298e-05 9.33751362e-05
      1.91237283e-04 2.27953951e-05 2.05560864e-04 1.45131344e-04
      -2.12585015e-04 -1.24968501e-04 -3.91956237e-05 -2.96097960e-06
      5.87209943e-05 -1.33873500e-05 -2.27409182e-05 1.08313652e-04
      -1.12888891e-04 -3.37323800e-05 -9.50395843e-05 2.27961191e-05
      1.43476092e-04 -5.56032865e-05 -6.94904011e-05 -1.40837539e-04
      7.38584822e-06 -9.66052030e-05 1.90737610e-05 -7.50413456e-05
      -1.49184398e-05 -7.11309185e-05 3.59954865e-05 -6.13423572e-06
      -1.88245194e-05 -3.50002447e-05 1.09702509e-04 5.11208636e-05
      -1.39578624e-04 -2.22570889e-05 -4.33924615e-05 7.75810258e-05
      -1.35523209e-04 -1.36258648e-04 -1.61460121e-05 -1.61737349e-04
      1.07031301e-04 1.01888099e-05 -7.01090539e-05 -9.59010431e-05
      -1.69969091e-04 2.90549215e-04 5.70028569e-05 1.57658986e-04
      1.05748069e-04 -1.29443855e-04 1.85465353e-06 1.30995802e-04
      5.61966908e-06 -2.11030070e-04 -1.08278393e-04 8.74610196e-05
      -2.37699045e-04 -5.76496022e-05 -9.81152407e-05 -9.66318985e-05</_>
    <_>
      3.67229186e-05 1.79489914e-04 -5.55395636e-05 -1.52440000e-04
      1.45289887e-04 9.95468072e-05 1.14852272e-04 -6.09882372e-05
      7.46564692e-05 -1.32392786e-04 -3.43349620e-06 -1.42047269e-04
      3.39059152e-05 -1.37013500e-04 1.13298738e-04 1.35776674e-04
      7.28612504e-05 -1.56546594e-04 -1.34308029e-05 1.82047079e-04
      1.18938078e-04 4.97657275e-05 -9.86134764e-05 -5.11043845e-06
      1.27266598e-04 2.03755644e-05 -7.70828556e-05 -3.99389901e-05
      3.85248059e-05 -6.80802550e-05 -5.49061770e-05 -1.31726629e-05
      -4.39718169e-05 -9.14990378e-05 -1.13100665e-04 7.08959342e-05
      3.82198414e-05 7.74392829e-05 -1.34324466e-04 -1.74348083e-04
      -2.83316035e-06 -3.07026276e-05 1.14228678e-04 -8.43675807e-05
      6.02216533e-05 4.08413916e-06 -3.06263646e-05 -1.01790334e-04
      -1.44725651e-04 -8.89972434e-05 1.61148360e-04 2.45636220e-05
      -5.55199949e-05 -1.34385293e-04 -1.04234787e-04 8.60826094e-06
      -6.64073305e-05 -1.52483499e-05 -1.11095156e-04 -9.06513087e-05
      -7.26690560e-05 -4.91489918e-05 4.44917168e-05 -1.26111321e-04
      8.47766642e-05 -2.23131778e-04 -1.42210032e-04 -1.63119712e-05
      1.87108046e-04 1.88178183e-05 1.32621833e-04 1.55126036e-04
      -1.62096068e-04 -6.12378572e-05 -1.13446207e-04 3.73456351e-05
      -2.64787341e-05 -8.52081794e-05 8.08578916e-05 2.61943751e-05
      9.98050309e-05 -3.72970280e-05 -2.32777107e-04 -1.40840230e-05
      8.08803088e-05 -1.20130312e-06 1.24745435e-04 1.19856944e-04
      -4.15892391e-05 2.71867011e-05 2.63326510e-05 5.33221901e-05
      -7.56373192e-05 1.26722171e-06 5.69493823e-05 2.43910308e-05
      4.42940473e-05 -1.30368353e-04 -9.97715688e-06 4.04886305e-05
      -2.18433415e-05 5.27682232e-06 -8.08940604e-05 1.62103570e-05
      -2.59322958e-04 -3.26740264e-05 1.79823925e-04 -9.28822919e-05
      -3.66413733e-05 8.38907581e-05 2.23282659e-05 -8.40196890e-07
      -4.00040954e-05 1.65555437e-04 -8.46148105e-05 -1.07881147e-04
      1.02661972e-04 -1.82325748e-04 1.28859450e-04 1.17127151e-04
      1.16918825e-04 -1.85475903e-04 -3.07359114e-05 -2.27016844e-05
      -1.29482869e-04 6.60598307e-05 7.38487652e-05 8.77291459e-05</_>
    <_>
      1.91646934e-04 -1.66430636e-05 -1.07078238e-04 -4.21873374e-05
      -2.57894612e-07 -1.50446911e-04 -3.83173792e-05 -7.87057506e-05
      -1.15734238e-05 -1.55576738e-04 -1.08903114e-05 -1.20579258e-04
      1.29915497e-05 2.77236904e-06 1.77539128e-04 1.57408271e-04
      2.53793914e-05 -1.49731804e-05 -1.90636827e-04 7.46175137e-05
      1.31276931e-04 -1.36687668e-04 -1.79363327e-04 -7.93995714e-05
      6.90854213e-05 -4.35609873e-05 -5.31464684e-05 2.83664449e-05
      2.33354986e-05 -3.91319154e-05 -1.04766201e-04 6.98893418e-05
      -1.94142576e-05 -6.21855070e-05 2.00140003e-05 1.17866584e-04
      4.45399473e-06 1.78309550e-04 3.43173440e-07 -6.57994533e-05
      1.67267412e-04 -5.89525589e-05 -7.39439638e-05 -3.84945415e-05
      4.97559740e-05 -2.59768312e-05 -3.99615601e-05 -2.86095601e-05
      -1.52794033e-04 -9.70366818e-05 1.51138738e-04 -7.48440798e-05
      -7.92636347e-05 -4.18678464e-05 -8.05410236e-05 2.52661102e-05
      -9.61064143e-05 -8.96414786e-05 -1.46195132e-04 5.78323161e-05
      -6.17776386e-05 -1.62155819e-04 1.69993073e-05 -2.06778204e-05
      -4.55315239e-05 -1.25287799e-04 -2.16889512e-05 -5.44308677e-05
      -1.27698377e-05 9.40900718e-05 8.15375242e-05 8.77391431e-05
      -1.44689504e-04 -1.63390860e-06 -7.32126427e-05 1.15378840e-04
      -1.13609683e-04 -1.07184431e-04 1.38482341e-04 1.18230382e-04
      -8.21927315e-05 -1.23065372e-04 -1.54086811e-04 -4.93877887e-05
      3.23523600e-05 -4.51536107e-05 1.55996298e-04 -3.01572754e-06
      -9.59907120e-05 2.28932640e-05 -7.05754019e-06 9.06307250e-05
      8.13885345e-05 8.56734841e-05 4.35562979e-05 3.70372545e-05
      -1.32589121e-04 -1.42861099e-04 -3.58394100e-05 1.13462273e-04
      1.17120007e-05 -1.54504542e-05 6.83677399e-06 1.07742435e-05
      -2.15202483e-04 1.35484725e-05 1.32487374e-04 -4.66085512e-05
      -3.74227748e-05 6.75694810e-06 2.02181564e-05 -7.90752383e-05
      -9.86083905e-05 4.97791698e-05 -9.12004616e-05 -6.14321034e-05
      1.06804800e-04 -1.19993565e-04 7.65294171e-05 2.65559738e-05
      1.12371243e-04 -7.02532270e-05 -1.04020255e-04 -2.37968015e-05
      -1.78076618e-04 1.48483028e-04 4.60905976e-05 -1.01370839e-04</_>
    <_>
      1.72858694e-04 -1.30735803e-04 -1.85490615e-04 -2.33194005e-04
      7.92205537e-05 5.92236029e-05 1.45822298e-04 -1.91881685e-04
      1.64451572e-04 -1.00692872e-04 1.30601606e-04 -9.88965112e-05
      5.85941452e-05 9.47815934e-05 6.83861581e-05 2.79507920e-04
      1.27432417e-04 -4.49492763e-05 2.34347735e-05 1.09049623e-04
      3.83887149e-04 -8.57037739e-05 4.35529546e-05 -1.06513187e-04
      4.79080591e-05 -3.67748326e-05 -1.72058542e-04 6.40137478e-06
      4.35457951e-05 4.66540332e-05 -1.11307490e-05 1.26514962e-04
      1.07256965e-05 -5.94271914e-05 -1.28960572e-04 1.36788673e-04
      6.39687059e-05 1.57900300e-04 1.47878556e-04 -1.04425199e-04
      1.89560713e-04 1.25861916e-04 -1.60304029e-04 2.97137030e-05
      8.56759470e-06 -5.42376802e-05 -1.13984708e-04 -6.31361763e-05
      -1.54270892e-04 -1.38028510e-04 2.47744727e-04 1.48245135e-05
      -1.69748542e-04 -1.08043561e-04 -8.31443249e-05 1.25470569e-05
      -9.46320361e-05 -2.71041918e-05 1.01058220e-04 -4.33835849e-05
      -8.57738487e-05 -2.28109886e-04 -2.17443448e-04 -5.93218356e-05
      1.64653131e-04 -1.74953981e-04 1.75787118e-05 -3.66962231e-05
      1.52285167e-04 4.12588161e-05 1.06922889e-04 2.13626598e-04
      -2.89295422e-04 -8.19988272e-05 -5.69100521e-05 1.21095036e-05
      -4.06721374e-05 -2.92449986e-05 8.00602575e-05 3.79553203e-05
      -7.14540583e-05 -1.04072467e-04 -6.85803825e-05 -9.68771201e-06
      3.02064309e-05 4.29347638e-05 5.92831493e-05 4.42444107e-05
      3.61087677e-06 -1.81794720e-04 1.25843173e-04 6.61446611e-05
      -8.49781500e-05 8.48736890e-05 -7.76877569e-05 1.02450831e-04
      -1.29703585e-05 -9.76904339e-05 -1.49156636e-04 6.60554433e-05
      7.66851153e-05 1.79086328e-05 -7.59484246e-05 1.06103747e-04
      -2.12839994e-04 3.64999687e-05 1.52700391e-04 9.39965175e-05
      -1.12488284e-04 3.41386731e-05 2.30605074e-05 -8.47968695e-05
      1.09680448e-04 1.71804277e-04 3.82292001e-06 8.27092590e-05
      2.61629582e-04 -2.27634431e-04 2.20594287e-04 -1.76317961e-04
      1.05619307e-04 -4.73147302e-05 2.35598764e-05 1.07440195e-04
      -2.54170096e-04 2.77997951e-05 -5.23692688e-05 -1.11639718e-04</_>
    <_>
      1.11794558e-04 2.45780451e-04 -6.31592193e-05 -1.68970335e-04
      1.48943145e-04 6.98043732e-05 7.15778660e-05 -1.59950912e-04
      1.85911966e-04 -2.24458257e-04 1.91338786e-05 -8.60745713e-05
      -5.65042465e-05 1.33755393e-05 4.58546201e-05 2.27736717e-04
      3.87919426e-05 -1.51102911e-04 -1.08781445e-04 -1.47975225e-05
      2.85378192e-04 3.56419696e-06 3.09542302e-05 5.80575106e-05
      9.30167371e-05 8.71914890e-05 -7.64906727e-05 -1.28521104e-04
      -2.60618835e-05 1.88030015e-07 -1.62657336e-04 4.23000965e-05
      -5.12446968e-05 -1.15893738e-04 -1.21845937e-04 2.00348568e-05
      -1.23149934e-04 2.34635736e-04 5.26346921e-05 -1.22011814e-04
      -1.24235201e-04 4.98692025e-05 1.89788134e-05 -2.77957242e-05
      1.61602497e-04 3.78304903e-05 -2.22296603e-05 -1.15499686e-04
      -3.24338878e-04 -1.24639162e-04 1.73153137e-04 -1.08368513e-04
      6.28571343e-06 -1.80046802e-04 -1.33501802e-04 -5.71157070e-05
      1.34603297e-05 1.83508364e-05 -1.94313965e-04 -6.24293971e-05
      -1.01911588e-04 1.26581153e-05 9.64895571e-06 -9.73283750e-05
      6.02273903e-05 -2.36372769e-04 -1.41742625e-04 3.90239329e-05
      1.96286983e-05 8.38593551e-05 1.05777828e-04 1.44540740e-04
      -2.67184631e-04 -1.21057659e-04 4.48323226e-05 5.61778506e-05
      -9.30642127e-05 -1.61391043e-04 6.22514926e-05 4.14472561e-05
      4.48283572e-05 3.74560805e-05 1.43064426e-05 1.13842179e-04
      -1.55998168e-05 5.00850547e-05 1.35314302e-04 9.15009805e-05
      4.49060281e-05 1.19847346e-05 3.41219384e-05 2.64939863e-05
      -9.22006657e-05 -1.35387909e-05 -3.66687273e-05 4.45120941e-06
      5.36814914e-05 -1.34849266e-04 -1.29543536e-04 1.11969057e-04
      -1.58794195e-04 -9.21514220e-05 -1.38759031e-04 9.34720447e-05
      -2.15335662e-04 -1.71438285e-06 1.37859373e-04 9.53226045e-05
      2.18440255e-05 7.63206845e-05 5.45735966e-05 2.72600155e-05
      1.99845163e-05 1.87219528e-04 5.15613556e-06 -2.19928552e-06
      1.48555453e-04 -1.51115935e-04 -4.79063929e-05 7.80885093e-05
      7.54083085e-05 4.45905171e-05 -1.15423303e-04 1.28586442e-04
      -1.93742104e-04 -4.67384452e-05 -7.52327978e-05 -1.50666165e-04</_>
    <_>
      2.53610688e-05 1.10986104e-04 -1.73415083e-05 -1.93553424e-04
      -2.94669953e-05 -7.71233099e-05 1.41032622e-04 -2.14486761e-04
      -1.62324693e-06 -9.19356316e-05 5.45977673e-05 -1.25810229e-05
      -8.39951244e-05 1.37430659e-04 1.02428421e-04 8.21047433e-05
      1.82215554e-05 6.09799656e-07 1.38252608e-06 5.91454518e-05
      1.44983584e-04 -4.30328910e-05 8.07708348e-05 -7.74502623e-05
      3.13204597e-04 -3.19431419e-05 -4.13999805e-05 7.91024650e-05
      9.75112853e-05 2.38878001e-05 -3.64294865e-05 1.27820851e-04
      -1.31492794e-04 -1.12694164e-04 -3.34055803e-05 1.77087903e-04
      7.23669364e-05 -5.78397839e-06 1.37119292e-04 -1.34260990e-04
      -1.15501884e-04 -3.71473943e-05 8.50027027e-06 1.80014504e-05
      9.94536240e-05 -8.57887062e-05 1.60038926e-05 -1.06452608e-04
      -1.20539640e-04 -2.27001037e-05 9.24328197e-05 7.82364077e-05
      1.52171167e-04 -1.08074259e-04 -3.64808257e-05 1.04802903e-05
      -6.38620113e-05 -2.51475085e-05 -1.40022414e-04 8.20112546e-05
      4.55434092e-05 3.07751943e-05 3.22639039e-06 1.83169832e-05
      -2.51845995e-05 5.24059851e-06 -5.00185743e-05 1.68505194e-05
      6.14677847e-05 4.27554987e-05 1.04867046e-04 5.87249706e-05
      -1.82668809e-04 -1.38383708e-04 -6.90922679e-05 3.31086230e-05
      1.33215552e-04 -1.31888053e-04 9.73656133e-05 -1.85177523e-05
      -4.47494058e-05 -8.98798244e-05 -6.83324397e-05 4.71263920e-05
      -4.94544329e-05 -1.03260201e-04 1.05738931e-04 6.38434722e-05
      5.18163688e-05 4.58807790e-06 1.85397930e-05 3.06025722e-05
      1.97808440e-05 9.43915365e-05 8.09552148e-05 4.86003810e-05
      -2.69778302e-05 7.34130708e-06 3.69958593e-06 7.40178875e-05
      -4.80863537e-06 -2.43570794e-05 -1.15790812e-04 1.21816222e-04
      -2.72241421e-04 -1.98670259e-05 9.18537116e-05 1.87184412e-06
      1.88566919e-05 -1.68031649e-04 4.45608312e-05 -1.71373213e-05
      -6.84623956e-05 1.16879521e-04 -4.18560267e-05 7.38252565e-05
      1.25466278e-04 -1.28051848e-04 1.38343879e-04 -1.39062058e-05
      5.62027599e-05 1.36237677e-05 -1.90293213e-04 1.75218389e-04
      -1.18401673e-04 -3.27325506e-05 -1.63904733e-05 -2.15017775e-04</_>
    <_>
      5.31542828e-05 1.19692086e-04 -8.85168120e-05 -1.47884974e-04
      1.24525279e-04 -7.68289465e-05 1.89431637e-04 -1.41845710e-04
      4.23873571e-05 -3.31332376e-05 -9.57640877e-05 -6.60883961e-05
      8.05072341e-05 9.66947628e-05 4.44074576e-05 1.03431179e-04
      8.13712759e-05 -2.16629792e-06 -1.17516698e-04 7.50067193e-05
      1.25884864e-04 3.88993576e-05 -3.61829771e-05 -5.76030698e-06
      5.62427995e-05 1.85660974e-05 -5.50059813e-05 -1.11728577e-05
      -2.68738986e-05 -1.16891861e-04 -5.10389436e-05 4.87169054e-05
      3.27409180e-05 -9.59922472e-05 -4.28262720e-05 2.06323137e-04
      -1.18512562e-05 -9.06181813e-05 -7.25984364e-06 -1.18151940e-04
      -4.84018528e-05 -1.08378999e-05 -4.08747474e-05 1.26930954e-05
      2.32730497e-04 6.34528405e-05 3.64909574e-05 -3.59886726e-05
      -2.48375902e-04 -3.58369143e-05 9.79186298e-05 -1.52669818e-05
      2.68659969e-05 -2.54310697e-04 -1.56237773e-04 4.67264435e-05
      -1.43544763e-04 -3.30277107e-05 -9.05583074e-05 2.02678038e-05
      -1.22686004e-04 -7.18782831e-05 -7.98796755e-05 -1.08928434e-05
      2.96271628e-05 -7.00095188e-05 -6.40491853e-05 -7.12668407e-05
      2.07877692e-05 5.33179373e-05 4.65496014e-05 3.61991551e-05
      -3.03661975e-04 -4.98862537e-05 1.02048056e-04 -1.28559259e-04
      3.49111142e-05 -1.32069676e-04 1.74307759e-04 1.55450580e-05
      2.90598327e-05 7.06321516e-05 -2.61584151e-04 1.79912880e-04
      1.44825695e-04 -2.04789267e-05 1.37179333e-04 -3.96093346e-05
      8.51203458e-06 1.53619141e-04 1.40928780e-04 2.00578779e-05
      -6.24995955e-05 -7.23614357e-05 1.84040895e-04 -2.92264922e-05
      4.01532707e-05 -1.28323343e-04 -8.70820295e-05 5.75485574e-05
      6.04630513e-05 -5.75787271e-05 -3.62665196e-05 -4.67072641e-06
      -1.69154606e-04 1.34896647e-04 1.51391282e-06 -2.03240284e-04
      -1.50860011e-04 -7.82592815e-06 1.39962300e-04 -9.76192387e-05
      -7.52067626e-06 2.30954538e-04 -2.12816994e-05 4.43981880e-05
      3.12462143e-05 -1.08393979e-04 5.89635893e-05 -2.29602683e-05
      7.06236824e-05 -1.35064169e-04 -1.65425532e-04 1.07577271e-05
      -1.41060184e-04 -1.18816868e-04 4.97338733e-05 -3.05669055e-05</_>
    <_>
      8.50000069e-05 6.85013656e-05 -1.00280457e-04 8.43966118e-05
      4.48034298e-05 2.69365464e-05 5.89678566e-05 -7.43078272e-05
      1.15773102e-04 -7.85687225e-05 8.19078014e-06 -1.35663824e-04
      3.76456992e-05 -4.65761004e-05 6.88128857e-05 1.72950706e-04
      5.06258293e-05 -8.92934113e-05 -1.75874575e-05 1.29868886e-05
      2.02434894e-04 6.35849719e-05 1.13580736e-05 -9.80120531e-05
      5.34972132e-05 1.07089814e-04 -3.12556695e-05 -1.37827039e-04
      -7.20017924e-05 -1.09289787e-04 -6.11203723e-05 -5.39413049e-05
      3.49996626e-05 -1.65987178e-04 -8.70052972e-05 9.84098224e-05
      -4.80030758e-05 1.32992369e-04 8.10407801e-05 -8.32034566e-05
      8.17416512e-05 1.04127132e-04 -1.53589033e-04 -8.83370558e-06
      1.21831821e-04 -1.35185910e-04 -5.49699544e-05 -1.14776158e-04
      -3.04726796e-04 1.12381031e-05 1.33608017e-04 -8.87165661e-05
      -1.13140362e-04 2.18798068e-05 -1.68419327e-04 -5.90160062e-06
      -1.74059460e-04 -7.19926393e-05 -3.28977912e-05 7.16512222e-05
      -1.06893553e-04 -4.11992442e-05 -6.03353110e-05 3.53801843e-05
      1.19994402e-04 -1.02801940e-04 1.31046763e-05 -2.47052794e-05
      -1.25785800e-05 1.50029911e-04 9.79236647e-05 1.08035099e-04
      -2.18335670e-04 -1.45313490e-04 -9.89780310e-05 4.51247106e-05
      -7.05338898e-05 -7.70696934e-05 8.81033266e-05 -2.32536877e-05
      9.16936551e-06 -7.31674809e-05 -2.69025681e-04 8.75972692e-05
      3.48659523e-05 -2.55125869e-05 1.02812301e-04 2.39877409e-05
      -2.17482648e-05 8.02593495e-05 6.43689273e-05 7.13433328e-05
      -8.56600163e-05 -4.96400680e-05 1.17879521e-04 -1.58687453e-05
      -1.11831687e-05 -1.38242933e-04 -5.02568328e-05 1.89559330e-04
      -1.38369239e-06 2.23285624e-05 3.01755026e-05 1.86739896e-06
      -1.74695801e-04 4.86745048e-05 1.32669506e-04 -6.34192693e-05
      -5.85174166e-05 4.53450375e-05 -4.17501224e-06 1.27372932e-05
      -7.11444000e-06 7.06395294e-05 6.53331590e-05 -3.86992142e-05
      1.99896051e-04 -1.22463534e-04 4.41054945e-05 5.14454696e-05
      2.98481245e-06 -4.72179854e-05 2.43638351e-06 4.61199415e-05
      -1.61978867e-04 1.16786978e-05 2.17953311e-05 -7.08472726e-05</_>
    <_>
      8.22969378e-05 9.70762630e-05 -7.84913209e-05 -9.65510626e-05
      1.65989070e-04 8.19251727e-05 6.15309036e-05 -1.16919386e-04
      -4.13039852e-05 -1.78546499e-04 -1.36466278e-05 -1.32794994e-05
      1.65598412e-05 7.37481969e-05 6.45056716e-05 8.57253181e-05
      -3.69229783e-05 3.77386118e-06 -8.18265762e-05 -2.50984681e-06
      2.67633790e-04 -6.53354509e-05 -1.37716794e-04 1.02570913e-04
      1.42199802e-04 7.34485438e-05 4.67819846e-05 -7.74957152e-05
      -8.14202504e-05 4.52199060e-07 -7.30694010e-05 8.08948425e-06
      -1.64847210e-04 -8.08702025e-05 -2.05071265e-04 1.01086087e-04
      -4.26249499e-05 1.48002422e-04 -1.83096054e-05 -5.97522812e-05
      8.22777292e-05 9.93537014e-06 -6.68230787e-05 -4.41698394e-05
      1.14959912e-04 3.74495794e-05 -2.15455602e-05 1.68163315e-05
      -1.86658057e-04 -2.28865687e-07 6.61543309e-05 -5.56002415e-05
      1.40996026e-05 -5.63247486e-05 -7.97023233e-07 1.03744906e-05
      8.26037212e-05 -8.79617874e-05 -7.32037806e-05 1.22354555e-04
      -5.49390961e-06 -1.80040479e-05 -5.99509403e-05 -1.00941488e-05
      1.13324066e-04 -2.28409699e-04 4.45649785e-05 -5.55602783e-05
      -3.07921036e-05 1.76794754e-04 1.64625279e-04 8.57404375e-05
      -1.00421319e-04 -8.07721808e-05 1.56506692e-04 -9.57731390e-05
      -3.08754679e-05 1.29429400e-05 1.87308047e-04 9.78513563e-05
      3.37832148e-06 4.62142016e-05 -7.63156859e-05 7.78409594e-05
      -8.80155312e-06 -1.27922103e-04 1.60486452e-04 1.07010674e-04
      3.95210736e-05 -2.40317640e-05 -1.55881753e-05 8.97028731e-05
      -9.17353100e-05 -2.34338022e-05 -6.46656554e-05 4.21974291e-05
      5.42982561e-05 3.73029735e-07 8.79390154e-06 6.37621124e-05
      -6.46193212e-06 6.95693088e-05 -2.16651733e-05 2.82084977e-04
      -2.56932253e-04 -8.97693390e-05 1.35288166e-04 -1.31273800e-05
      2.88979281e-05 5.40211840e-05 9.06679779e-05 -4.41256052e-05
      3.47934620e-05 8.12838916e-05 8.72089367e-06 -2.19901158e-05
      6.96121424e-05 6.06100984e-05 7.11482280e-05 -1.24258077e-04
      5.05583776e-05 -2.80165968e-05 -1.53777364e-04 1.62883691e-04
      -1.61658798e-04 5.41166773e-05 -6.67668210e-05 -1.60940166e-04</_>
    <_>
      -1.77445720e-04 1.46708393e-04 3.99587880e-05 4.24575846e-05
      1.55618654e-05 -3.36285411e-05 6.43985186e-05 5.32196791e-05
      8.76620834e-05 1.73367607e-05 2.86704526e-05 -2.00995448e-04
      8.39562344e-05 -1.31510251e-05 -2.22347262e-05 3.64764637e-05
      -7.96568711e-05 -4.16847179e-05 1.23080281e-05 1.91426429e-04
      -2.82610308e-05 2.93644134e-05 -7.80477494e-05 7.57341422e-06
      1.19233846e-04 7.32126182e-07 -4.87977813e-05 3.42171006e-05
      -6.43410240e-05 -1.06639462e-04 1.10495261e-04 -1.36650138e-04
      -3.97097028e-05 -4.80224262e-05 -7.37259979e-05 -2.08148223e-04
      6.36931436e-05 -1.94353357e-04 -7.81927811e-05 -2.22029543e-04
      1.21945595e-04 6.12706935e-05 1.99052374e-04 -1.50963184e-04
      -6.87088032e-05 -1.38333826e-06 -9.91271008e-05 4.98715508e-06
      -7.64888755e-05 -1.16884446e-04 9.43169871e-05 7.80840419e-05
      -2.98910290e-05 -1.60875265e-04 -8.57273408e-05 -1.10447530e-04
      7.61454576e-05 -1.16944022e-04 -1.23762540e-04 -7.06144783e-05
      -1.33988302e-04 9.95360388e-05 1.20194731e-04 -3.52944153e-05
      -1.82373333e-05 -1.95271627e-04 -2.17986817e-04 -1.27713036e-04
      -1.66556447e-07 1.53336277e-05 -4.72246393e-05 7.98236215e-06
      2.29164852e-05 5.21272377e-05 -1.17296331e-05 5.53171667e-05
      -4.55177615e-05 -6.49180656e-05 8.34389793e-05 -5.33120110e-05
      2.23008450e-04 -2.48282322e-05 -8.93260076e-05 -1.69091054e-05
      -5.86514252e-05 6.74371258e-05 2.59301713e-04 2.16177839e-04
      -7.10918830e-05 1.37291121e-04 4.69527004e-06 1.51275031e-04
      -2.93244630e-05 -1.58454222e-05 9.17740108e-05 -4.32119668e-06
      6.26530891e-05 -9.58384699e-05 -1.39791082e-04 -4.47711682e-05
      1.42088276e-04 1.48210325e-04 -1.08325519e-04 -8.67400231e-05
      -1.66917525e-04 1.27515872e-04 1.96471723e-04 2.19602261e-05
      -1.52690787e-04 -1.98431485e-06 3.62314968e-05 7.17509683e-05
      1.24387618e-04 -6.36409677e-05 -1.44591060e-04 -3.33828910e-04
      3.97785952e-05 -2.68891872e-05 1.30090062e-04 2.86195632e-06
      1.33575348e-04 8.75447950e-06 9.79375036e-05 2.52957852e-06
      7.25792634e-05 1.11409601e-04 2.16767803e-04 2.11725768e-04</_>
    <_>
      8.52299127e-06 2.88986284e-05 3.09282259e-05 1.14623130e-04
      -1.13482187e-04 -3.07052251e-04 -1.34435992e-04 2.00638824e-05
      -5.27533775e-05 -4.90012972e-05 2.17823144e-05 -1.93737273e-04
      -1.45386639e-05 1.08411114e-04 8.26457544e-05 1.75012770e-04
      -5.32374397e-05 9.07843933e-05 -1.37049632e-04 6.40462022e-05
      -4.24766768e-06 -1.48330393e-04 -2.41601942e-04 -1.02195634e-04
      6.96294364e-06 -5.94605881e-05 5.13369814e-05 4.78447655e-05
      -1.43174193e-05 -9.41969556e-05 -2.58313376e-05 -4.15481263e-05
      -2.69365428e-05 -2.00893664e-05 4.95951281e-05 -2.08652309e-05
      1.25618953e-05 3.64369334e-05 5.83976616e-05 -9.81695994e-05
      2.21667578e-04 -3.39062462e-05 -4.90802522e-05 -2.40812969e-05
      1.85670560e-05 -4.16573021e-05 -1.66341379e-05 1.10851019e-04
      -1.34494010e-04 -4.35728398e-05 1.14464623e-04 -6.82902391e-05
      -4.58077448e-05 -9.23514563e-06 -6.43021349e-06 -1.11054331e-04
      -4.32977649e-05 -1.61594784e-04 -1.61934135e-04 1.53827976e-04
      -6.87097272e-05 -1.79285762e-05 7.93283325e-05 8.48334312e-05
      -9.24066699e-05 -4.23565762e-05 -6.72363094e-05 -1.38233780e-04
      -2.38923662e-04 1.41364479e-04 -8.12658545e-05 -1.76453959e-05
      1.17071158e-05 1.02941311e-04 -9.70993206e-05 1.62166747e-04
      -1.94062726e-04 -1.27951818e-04 1.66950369e-04 1.41591690e-05
      -3.33446587e-05 -1.61091346e-04 -6.46466069e-05 -6.11278228e-05
      -3.42673520e-05 -6.01848806e-05 2.65629555e-04 9.73169372e-05
      -1.51509579e-04 5.64235343e-05 4.67699283e-05 2.09921986e-04
      1.07899330e-04 4.01665238e-05 5.48358767e-05 5.79278603e-05
      -1.09339227e-04 -1.73535300e-04 -1.10518959e-04 5.30093821e-05
      1.51342290e-04 1.16053627e-06 6.57864803e-05 -9.15420096e-05
      -9.45595893e-05 1.32523070e-04 1.64037454e-04 4.96068697e-06
      -1.04379069e-04 -1.48238551e-05 -1.68935931e-05 -1.80069055e-05
      -1.97816007e-05 -1.06379324e-04 -1.53354544e-04 -1.75983703e-04
      2.70037763e-05 -6.51259979e-05 1.26008614e-04 -9.61623227e-05
      7.43567580e-05 1.33725873e-04 -2.93325793e-05 -4.50643602e-05
      -7.01812132e-06 1.75812427e-04 1.45589656e-04 -3.93106257e-06</_>
    <_>
      -1.06411877e-04 -1.56266397e-04 -2.63139955e-05 6.12897566e-05
      -9.92383211e-05 -9.56776639e-05 3.28445130e-05 -3.79192825e-05
      1.39343087e-04 1.76992529e-04 1.31744571e-04 -1.86464968e-04
      8.31533835e-05 2.38856854e-04 -1.48906212e-04 8.82489257e-05
      -7.07991421e-05 1.49442683e-04 1.37097348e-04 9.01528329e-05
      8.98628641e-05 -1.13187802e-04 7.38672898e-05 -9.10125018e-05
      -2.71949921e-05 -9.35393982e-05 -5.82127323e-05 5.53236496e-05
      -9.46385335e-05 -1.48718773e-05 1.99747912e-04 -3.11418953e-05
      -1.48015533e-05 6.17027908e-05 -1.49601212e-04 -1.78299291e-04
      1.15715404e-04 -1.42390156e-04 1.65363948e-04 -1.89686325e-04
      2.66314833e-04 2.20544229e-04 -6.51992887e-05 -1.89438670e-05
      -1.07855616e-04 -2.10082089e-05 -1.61235439e-04 7.22884288e-05
      -7.21759061e-05 -9.18647638e-05 1.10275527e-04 2.51728267e-07
      -2.09910198e-04 -1.00376383e-04 5.78842446e-05 -1.00130776e-04
      7.70474944e-05 -7.71148698e-05 1.33760885e-04 -1.46587308e-05
      -1.49597894e-04 2.21077680e-05 -8.95437697e-05 3.72378345e-05
      9.21532337e-05 -4.70282139e-05 -5.01469331e-05 -1.37168390e-04
      -8.63323876e-05 3.64972607e-06 -1.83051146e-04 2.82949550e-05
      -9.33600313e-06 3.60555568e-05 3.72207942e-05 6.57124519e-06
      -8.68280913e-05 3.79300182e-05 7.58609604e-05 -1.01009988e-04
      1.68869650e-04 -7.65294972e-05 6.75087140e-05 7.35080312e-06
      -1.65769074e-04 8.98297076e-05 1.11040223e-04 8.33229133e-05
      5.25859787e-06 -3.04244077e-05 7.44300924e-05 1.94133216e-04
      -3.59324840e-05 7.74727014e-05 -3.56247365e-05 5.23344643e-05
      5.10853533e-05 -3.12968550e-05 -2.02228039e-04 2.77994368e-05
      2.12992250e-04 9.66247098e-05 -2.42950464e-05 -6.61528466e-05
      -3.28169008e-05 2.37607077e-04 1.22523197e-04 2.12638362e-04
      -2.32692546e-04 -3.66410713e-05 4.50030711e-05 9.27658130e-06
      2.67710449e-04 -1.47842045e-04 -7.14319685e-05 -1.10271409e-04
      7.58823517e-05 -7.59786190e-06 1.74571309e-04 -2.72660604e-04
      1.10572553e-04 2.47716438e-04 1.57515329e-04 5.52895181e-05
      1.72720629e-05 7.45655561e-05 5.30756624e-05 5.93325640e-05</_>
    <_>
      -1.38410818e-04 2.21364375e-04 9.73198112e-05 8.38964115e-05
      -2.91755186e-05 -1.11255751e-04 -3.04622517e-05 -5.94547646e-06
      1.35511495e-04 -3.52830430e-05 6.60949663e-05 -1.74821442e-04
      1.30157796e-05 1.49450832e-04 -1.27425767e-04 7.70810439e-05
      -1.65740857e-04 -1.41277205e-05 -3.43445245e-05 -4.32325905e-05
      5.37540072e-05 -6.10529023e-05 6.46448025e-05 6.80060402e-05
      -4.13456974e-06 4.34893846e-05 -8.24204471e-06 -7.09033702e-05
      -1.26714891e-04 3.52380957e-05 -1.45715539e-05 -1.01759280e-04
      -4.61489908e-05 -5.25487121e-05 -1.08378423e-04 -2.70868069e-04
      -8.08689729e-05 -6.68440116e-05 1.19299795e-04 -2.27675002e-04
      3.88102626e-06 1.55496527e-04 1.16184499e-04 -6.41822407e-05
      5.38016429e-05 2.72012221e-05 -7.67996389e-05 8.33856320e-05
      -2.16044456e-04 -9.94424481e-05 8.54166647e-05 -1.26300642e-04
      4.26205552e-05 -1.41357232e-04 -4.86532954e-05 -1.44910795e-04
      1.82280084e-04 -3.76878779e-05 -1.62639102e-04 2.61402856e-05
      -1.51064974e-04 2.55756022e-04 9.57318989e-05 -1.81845407e-05
      -3.77867655e-05 -1.11606940e-04 -1.75829235e-04 -7.22864497e-05
      -2.39150570e-04 1.00009420e-04 -1.39997559e-04 -1.08552740e-05
      -1.79669951e-05 2.21751834e-05 1.27576990e-04 7.81893978e-05
      -1.88629710e-04 -6.10296120e-05 7.85584052e-05 -7.06540741e-05
      1.73570879e-04 6.67986969e-05 1.48876614e-04 1.12065543e-04
      -1.84929551e-04 1.24947954e-04 2.59250199e-04 1.95496556e-04
      2.09751834e-05 1.38483738e-04 4.28436397e-05 1.35698210e-04
      -4.53482680e-05 1.23681530e-05 -2.19665380e-05 1.33553949e-05
      8.92583921e-05 -8.54610043e-05 -2.38003049e-04 4.23571946e-05
      -3.12570307e-07 -4.81344032e-05 -1.21672339e-04 -1.97892332e-05
      -7.53654749e-05 2.01695322e-04 1.64324782e-04 2.36730513e-04
      -1.12234164e-04 8.96217443e-06 5.97975450e-05 1.16952600e-04
      1.98548456e-04 -1.09176930e-04 -2.62667127e-05 -2.02111551e-04
      1.36679000e-05 6.88627961e-06 -5.23670678e-05 -8.85763293e-05
      5.93969307e-05 2.91059347e-04 3.91748881e-06 8.34792882e-05
      2.77279214e-05 -6.45799882e-05 1.90774917e-05 -2.72201360e-05</_>
    <_>
      -1.72742642e-04 1.14493523e-04 8.42874360e-05 -6.25338507e-05
      -1.41608107e-04 -2.38198903e-04 1.14722163e-04 -1.13155344e-04
      -4.22897538e-05 8.83972371e-06 7.04283957e-05 -9.24451742e-05
      -7.62812269e-05 2.23470634e-04 -5.30997531e-05 1.13627220e-05
      -5.30017096e-05 9.11148963e-05 6.22053049e-05 7.90413615e-05
      -5.45972944e-06 -1.14341106e-04 8.97059508e-05 -4.31483895e-05
      2.46578187e-04 -5.80387896e-05 3.59158839e-05 1.18836229e-04
      4.25115832e-05 2.33751462e-06 7.77692476e-05 4.77981594e-05
      -1.35307753e-04 -8.50711949e-05 -9.57646171e-06 -4.02161604e-05
      5.85496855e-05 -1.77007023e-04 1.56642054e-04 -2.01793169e-04
      -7.08204971e-05 2.06210862e-05 8.44941169e-05 7.17147668e-06
      2.52975460e-05 -1.13895811e-04 3.45759981e-05 1.21024141e-05
      -7.68834507e-05 -1.48765696e-06 2.30415480e-05 1.08743217e-04
      1.98829628e-04 -1.15762094e-04 4.10648645e-05 -5.31542246e-05
      2.53891521e-05 -5.81117129e-05 -1.68038838e-04 1.57214396e-04
      -1.60675227e-05 1.96415203e-04 6.21821600e-05 1.32302681e-04
      -1.33793365e-04 9.14910925e-05 -5.61383531e-05 -6.44449974e-05
      -1.38307034e-04 4.97269575e-05 -6.07507318e-05 -3.99422315e-05
      -4.98658992e-05 -1.24259514e-05 -3.96370851e-05 4.87746765e-05
      9.86546947e-05 -1.66412297e-04 9.00756640e-05 -7.59941395e-05
      6.46299231e-05 -4.30904038e-05 1.17504405e-05 1.62153519e-05
      -1.58507086e-04 -4.31381050e-05 2.01517774e-04 1.80502277e-04
      1.31636843e-05 7.31824330e-05 -3.22469668e-06 1.04462400e-04
      4.40938784e-05 1.28807354e-04 6.68248613e-05 5.34976862e-05
      2.38721059e-05 -4.93770722e-06 -6.03561930e-05 7.15933993e-06
      1.07207161e-04 -1.39862505e-06 -7.72791027e-05 3.53359355e-05
      -1.63513032e-04 1.14629147e-04 8.82244858e-05 1.10049419e-04
      -8.31552316e-05 -1.82649979e-04 5.62250134e-05 4.38694333e-05
      9.74084760e-05 -1.06352840e-04 -7.04257836e-05 -5.12673396e-05
      2.93452540e-05 -4.09284548e-05 1.37109586e-04 -8.73501485e-05
      4.10567591e-05 2.15094129e-04 -5.60987137e-05 1.11436537e-04
      3.09087263e-05 -1.58431533e-07 1.85282315e-05 -1.67024031e-04</_>
    <_>
      -1.57179427e-04 8.82329259e-05 5.15268257e-05 7.89199403e-05
      -1.00086627e-05 -2.21645256e-04 9.29957241e-05 -6.78965953e-05
      -1.39134445e-05 1.21676108e-04 -8.87904753e-05 -9.19457743e-05
      1.04674444e-04 1.85648329e-04 -9.89392938e-05 1.80914799e-06
      -2.66485804e-05 1.55481772e-04 -3.53057621e-05 3.99783166e-05
      -1.03055012e-04 -2.47117550e-05 -5.71508899e-05 6.89818307e-06
      4.38471716e-06 -3.67828652e-05 6.14314777e-05 2.09706304e-05
      -1.28200889e-04 -9.67944143e-05 8.34303864e-05 -5.96334248e-05
      -2.33032574e-06 -3.50231312e-05 -3.81439022e-05 -2.36748492e-05
      4.63955475e-05 -3.10374366e-04 -1.19681745e-05 -1.92258216e-04
      2.60046800e-05 9.02758620e-05 5.21651127e-05 -1.42480758e-05
      1.22504367e-04 5.18801753e-05 1.93979868e-05 9.48203451e-05
      -1.45909027e-04 -2.01356688e-05 1.57849317e-05 1.03714538e-05
      3.05059875e-05 -2.18608271e-04 -7.56441295e-05 2.04742264e-05
      -3.57948375e-05 -5.13505511e-05 -9.73968054e-05 7.18878146e-05
      -1.81279509e-04 1.63331177e-04 -1.72385407e-05 5.60753324e-05
      -4.11037581e-05 5.20610702e-05 -6.86628482e-05 -1.51009226e-04
      -1.34991395e-04 1.87830938e-05 -1.55925896e-04 -8.20208297e-05
      -8.79441432e-05 5.95235542e-05 1.27386578e-04 -1.46326973e-04
      -2.64759656e-05 -1.37985757e-04 1.50039399e-04 -7.20526077e-05
      1.54470137e-04 1.25805323e-04 -1.70755869e-04 1.56367794e-04
      2.31245417e-06 1.39092408e-05 2.14646047e-04 7.73244392e-05
      1.18909165e-05 2.24786578e-04 1.18144264e-04 1.04625367e-04
      -3.00172433e-05 -4.70861378e-05 1.35080263e-04 -2.56330659e-05
      8.31546131e-05 -1.01309837e-04 -1.61248638e-04 5.47168565e-06
      1.68814688e-04 -4.64796940e-05 -4.24410828e-05 -1.20915211e-04
      -2.74158319e-05 2.71279452e-04 1.34576894e-05 -4.93442276e-05
      -2.55579827e-04 -2.84297494e-05 1.41406286e-04 -3.40377374e-05
      1.34629328e-04 1.83899738e-05 -4.86553145e-05 -7.66179874e-05
      -8.35103710e-05 -6.40212284e-06 2.95115497e-05 -1.15814240e-04
      7.22292898e-05 6.54182804e-05 -4.22911507e-05 -5.97202234e-05
      5.26388576e-05 -7.91436978e-05 1.07120373e-04 3.96795876e-05</_>
    <_>
      -1.52039109e-04 8.48899799e-05 -3.58711513e-05 2.23877854e-04
      -6.07677612e-05 -1.10495312e-04 1.24405260e-05 3.89627421e-05
      1.90019625e-06 8.27822223e-05 1.80780044e-05 -2.02862953e-04
      1.01097350e-04 1.17688367e-04 -4.17376432e-05 1.26794228e-04
      -1.83840766e-05 6.29391870e-05 1.59968931e-05 -6.41966290e-06
      7.91150815e-05 -1.00328916e-05 -6.22986627e-05 -8.72524688e-05
      8.74783325e-07 5.22589071e-05 3.99372475e-05 -1.42389152e-04
      -9.42101397e-05 -1.04095263e-04 6.20506980e-05 -1.16766816e-04
      -5.05227808e-06 -1.23314152e-04 -1.26775863e-04 -7.58150345e-05
      -8.40323046e-05 -2.35081588e-05 6.57940836e-05 -1.76408284e-04
      1.85298166e-04 1.52013861e-04 -1.07997017e-04 1.92734278e-05
      5.35049257e-05 -1.14311224e-04 -2.30038877e-05 6.82142627e-06
      -2.60133151e-04 9.70407109e-06 1.83174488e-05 -1.00401427e-04
      -7.08182270e-05 2.70962373e-05 -7.97047906e-05 -2.97644638e-05
      -1.14581890e-04 -1.41936776e-04 -1.36188264e-05 1.61551565e-04
      -1.31208813e-04 1.53749424e-04 -3.32335549e-05 1.07823900e-04
      7.21004399e-05 2.58289656e-05 -5.26178592e-05 -1.31254346e-04
      -1.71635707e-04 1.61627031e-04 -1.32762478e-04 5.69378972e-05
      -4.44135148e-05 -7.14165071e-05 -4.43521776e-06 5.44317700e-05
      -1.68047904e-04 -4.64988443e-05 1.35040857e-04 -6.06891626e-05
      9.93430294e-05 -6.69345318e-05 -2.25632393e-04 8.53373567e-05
      -5.49267315e-05 -2.88656429e-05 1.97831367e-04 1.15916206e-04
      -3.38427635e-05 1.68524872e-04 6.44467873e-05 1.83801007e-04
      -7.05312996e-05 -4.24738391e-05 1.05758802e-04 -3.73610055e-05
      -2.38801040e-05 -1.25167178e-04 -1.20826735e-04 1.25345978e-04
      1.38526200e-04 -3.77463175e-06 7.67400634e-05 -8.31923098e-05
      -9.74400609e-05 1.74699439e-04 1.84945020e-04 9.41942490e-05
      -1.32798101e-04 -1.19407441e-05 3.89392771e-05 1.04017650e-04
      2.50842451e-04 -1.10265675e-04 4.83342919e-05 -1.24905113e-04
      9.59335666e-05 -8.07012038e-05 3.91783396e-05 -5.57297790e-05
      1.79971394e-05 1.31947119e-04 1.47180413e-04 -6.59939815e-07
      1.17131071e-06 4.83119547e-05 3.49599468e-05 6.53686641e-07</_>
    <_>
      -1.08635031e-04 4.77437934e-05 4.67283753e-05 9.00427694e-05
      3.92594848e-05 -8.47547926e-05 -1.97473837e-05 4.42028113e-06
      -8.29379205e-05 -2.34468571e-05 -1.65508868e-06 -7.21477700e-05
      4.12285481e-05 1.57891089e-04 -8.53496604e-05 -2.30616934e-05
      -1.44409933e-04 1.37891984e-04 -4.03047125e-06 -1.36244262e-05
      7.23008343e-05 -9.14957200e-05 -7.99144254e-05 1.33141060e-04
      7.74150249e-05 4.08868145e-05 1.03829043e-04 -1.09910998e-05
      -1.72672662e-04 -6.67359336e-06 1.69133455e-05 -9.86393061e-05
      -1.36573741e-04 -2.32195634e-05 -1.76519898e-04 -8.96872589e-05
      -6.94641767e-06 -5.19637979e-05 1.94862241e-05 -1.10526111e-04
      1.39055017e-04 9.31650575e-05 -9.70722226e-07 -7.48201637e-05
      5.65473565e-05 4.36479786e-05 -5.19181704e-05 1.24689381e-04
      -1.41077850e-04 2.98371397e-05 -3.77083609e-07 -4.67390128e-05
      2.12946743e-05 -3.79392186e-05 5.43181122e-05 -7.66364174e-05
      1.61652672e-04 -1.01043624e-04 -3.79503836e-05 1.38506846e-04
      -2.26760421e-05 1.13375718e-04 -2.31387039e-05 8.30860008e-05
      4.58844843e-05 -1.42381323e-04 1.18972212e-05 -1.09222230e-04
      -1.88706195e-04 1.46084611e-04 -2.26236225e-05 -3.45376066e-05
      6.51784867e-05 5.75081367e-06 1.68799888e-04 -6.42768573e-05
      -7.39447205e-05 7.02688267e-05 1.90737424e-04 -5.59214959e-06
      9.66503649e-05 5.52798010e-05 1.55291509e-05 5.17786902e-05
      -1.02500773e-04 -5.76900384e-05 2.33464700e-04 1.66372352e-04
      4.12029040e-05 8.31410580e-05 1.02239246e-05 1.73692839e-04
      -9.31009272e-05 2.26066300e-06 -3.50123919e-05 1.58107068e-05
      1.14801704e-04 5.86688475e-06 -5.45854928e-05 2.31626109e-05
      4.10827270e-05 9.93812137e-05 7.35766935e-06 1.68015802e-04
      -1.34750735e-04 4.18361778e-05 1.47024533e-04 8.30928766e-05
      -6.73816176e-05 -2.34183244e-06 8.00574417e-05 2.19473932e-05
      1.43887606e-04 -1.47824729e-04 3.72603768e-06 -1.35986062e-04
      -4.14737115e-05 1.21461613e-04 5.72518184e-05 -2.12129497e-04
      3.88528897e-05 1.56202077e-04 -6.51003138e-05 1.33918817e-04
      4.60657575e-05 3.92623115e-05 -2.43737413e-05 -5.46281808e-05</_>
    <_>
      1.46976919e-04 -1.64397847e-04 -4.24067439e-05 5.26715812e-05
      -1.13997754e-04 -3.18378326e-04 -1.70615342e-04 -2.04234657e-05
      -8.82653403e-05 -1.15703609e-04 -5.32981721e-05 -1.93158285e-05
      -1.02534956e-04 7.67798047e-05 6.66531050e-05 2.28378049e-05
      -3.39427170e-05 1.52264358e-04 -1.56647715e-04 -1.10203888e-04
      3.80479105e-05 -2.02593903e-04 -1.80210787e-04 -6.94222981e-05
      -9.21726678e-05 -8.72954697e-05 1.03444734e-04 5.98571169e-05
      -1.86643210e-05 6.44897882e-05 -1.53232002e-04 7.39464667e-05
      2.34792424e-05 1.16650117e-05 1.69115796e-04 1.11673246e-04
      1.15241437e-05 1.62297307e-04 1.00420184e-04 1.26444036e-04
      1.61873540e-04 -2.89235195e-05 -2.10357452e-04 6.91828245e-05
      5.24224670e-05 -5.74473779e-05 1.64117682e-05 1.04789484e-04
      1.17230202e-05 5.44439026e-05 3.13440578e-05 -1.36410643e-04
      -1.39323020e-05 9.05459019e-05 -5.39997745e-05 8.17308173e-05
      -9.03883047e-05 -9.20468956e-05 -9.59884055e-05 2.56981293e-04
      -3.03098295e-05 -9.44696149e-05 -9.66561288e-07 1.27078965e-04
      -1.12105445e-04 9.76955489e-05 1.84487668e-04 -2.21619612e-05
      -2.03906617e-04 1.33792477e-04 -4.88573169e-05 1.65738729e-05
      -1.61922471e-05 7.78660615e-05 -8.40683715e-05 9.74789873e-05
      -1.31942419e-04 -4.69259139e-05 6.64794570e-05 1.17218333e-04
      -3.34393058e-04 -9.22784311e-05 1.10322060e-06 -1.12397989e-04
      -4.03478407e-05 -4.74016560e-05 1.05610146e-04 -5.35911022e-05
      -7.80395494e-05 -1.50508649e-05 2.40373156e-05 5.81079767e-05
      1.49109779e-04 7.44254721e-05 -2.55665091e-05 6.75322372e-05
      -1.76147223e-04 -1.21120604e-04 -3.52237657e-05 6.56935517e-05
      2.42047154e-05 -8.89143848e-05 1.70221727e-04 1.25519718e-05
      2.53170911e-05 7.62184209e-05 2.26636294e-05 5.93686636e-05
      2.61828955e-05 1.62558536e-05 -6.77712451e-05 -4.91639112e-05
      -6.05798741e-05 -6.12832737e-05 5.78327090e-05 5.68992182e-05
      2.03646723e-05 1.39605672e-05 -2.48553715e-05 -9.30449751e-05
      1.30314074e-05 1.06525527e-04 -8.75949045e-05 -6.48848800e-05
      -1.13403534e-04 1.28346714e-04 -7.63975404e-05 -2.46473151e-04</_>
    <_>
      1.18500509e-04 -3.35315068e-04 -6.68264838e-05 7.71963278e-06
      -1.14669616e-04 -9.88002139e-05 -2.49305394e-05 -9.18889418e-05
      3.44757318e-05 8.69848664e-05 1.13016591e-04 8.88970098e-05
      -1.95587436e-05 2.65620387e-04 -9.81413905e-05 4.69386214e-05
      1.67883366e-06 2.19921640e-04 4.11185720e-05 -1.46486855e-04
      1.83354568e-04 -1.05402112e-04 1.30161789e-04 -1.29673514e-04
      -1.82183139e-04 -7.95500819e-05 -1.55924645e-05 4.47859893e-05
      -4.01636280e-05 9.77913878e-05 1.73619101e-05 9.26092180e-05
      7.11930115e-05 5.79941916e-05 -2.14122647e-05 3.40487313e-05
      1.47691180e-05 7.65613586e-05 2.97759951e-04 8.24701201e-05
      1.34286209e-04 1.40279997e-04 -3.35692603e-04 1.43516751e-04
      -9.55585783e-05 -4.93290900e-05 -3.45376830e-05 8.28468037e-05
      5.75243030e-05 4.14068636e-05 -1.15476887e-05 -4.11381698e-05
      -9.90806220e-05 6.77221469e-05 1.01355487e-04 1.24928192e-05
      -1.47009914e-05 7.91505863e-06 2.09035934e-04 1.02989630e-04
      2.64679838e-05 -8.69095820e-05 -2.44070499e-04 8.06639509e-05
      8.77552156e-05 1.82120464e-04 2.18028101e-04 -1.04273140e-05
      -8.84647307e-05 4.90350794e-05 -1.08659333e-04 -4.13346934e-05
      -5.64876427e-06 1.37581083e-05 8.67174895e-05 -5.57872336e-05
      -2.76602304e-06 1.11624635e-04 -4.13187336e-05 2.24446376e-05
      -1.74392771e-04 -1.63699769e-05 2.37666332e-04 -6.26012188e-05
      -6.74374896e-05 1.93263932e-05 -1.23305377e-04 -1.13128335e-04
      3.25402179e-05 -1.47901315e-04 6.97314317e-06 1.58294752e-05
      1.12574889e-05 6.69306537e-05 -1.88146034e-04 2.16446242e-05
      -7.39497482e-05 1.05106803e-04 -5.24386633e-05 -1.89959337e-05
      1.18205935e-04 -2.31011818e-05 3.83421975e-05 4.13091257e-05
      1.01010854e-04 8.53382953e-05 -1.30891131e-04 1.57064918e-04
      -3.34552460e-05 -1.01515754e-04 -3.38111704e-06 -3.03234283e-05
      1.48927240e-04 -3.25991823e-05 1.38934949e-04 2.46864714e-04
      6.00771600e-05 3.30174953e-05 4.69209117e-05 -2.70327524e-04
      -8.67592535e-05 2.34218940e-04 1.13258742e-04 9.12545875e-05
      -6.08938644e-05 -5.36902044e-05 -1.82884178e-04 -2.43237213e-04</_>
    <_>
      6.40430590e-05 1.57879113e-05 5.82194007e-05 2.09977516e-05
      -5.17944463e-05 -1.25779799e-04 -5.31667320e-05 -3.99900273e-05
      4.11710680e-05 -6.85766645e-05 1.01405785e-05 1.08895256e-04
      -1.31119305e-04 2.10628292e-04 -1.56225884e-04 5.63009235e-06
      -7.81045601e-05 7.42631382e-05 -1.10429188e-04 -3.31578747e-04
      1.38286196e-04 -7.85384109e-05 1.67647639e-04 3.56292257e-05
      -1.78223025e-04 1.14877279e-04 1.03587801e-04 -1.08001179e-04
      -1.18195967e-04 1.04537074e-04 -1.76726215e-04 2.64920072e-05
      3.41586929e-05 -1.47381843e-05 6.75615593e-05 -8.14431842e-05
      -2.25176336e-04 1.55168003e-04 2.76997423e-04 2.08802321e-05
      -1.33545371e-04 1.03022918e-04 -1.83110911e-04 8.91048840e-05
      1.62660028e-04 -1.72389919e-05 6.36560217e-05 5.73771031e-05
      -1.73851426e-04 -4.13302114e-05 -7.69629623e-05 -1.50887747e-04
      1.33088528e-04 1.00027937e-05 -1.77568800e-05 -8.89004805e-05
      6.70273803e-05 5.46766023e-05 -8.11494101e-05 9.80466357e-05
      -3.66911336e-05 1.32951434e-04 -1.02206926e-04 9.49118039e-05
      -2.15336022e-05 6.01183638e-05 8.39874410e-05 6.46189073e-05
      -3.29969334e-04 1.15341492e-04 -1.08341323e-04 -7.61964693e-05
      -6.26059627e-05 -3.12761113e-05 1.65485020e-04 -1.18319795e-05
      -9.45420325e-05 -6.58668723e-05 -4.15602990e-05 1.58080729e-05
      -1.24295519e-04 1.13079812e-04 3.33377800e-04 1.33979876e-04
      -1.29490189e-04 1.11664704e-04 4.07693406e-05 -2.72550624e-05
      9.92132263e-05 1.59300962e-05 -7.02127909e-06 -8.59795255e-05
      2.14615557e-05 4.22942576e-05 -1.65150661e-04 -3.35516670e-05
      3.37623605e-05 2.16025637e-05 -1.72287793e-04 5.74494625e-05
      -1.87228405e-04 -1.88734324e-04 3.42127278e-05 7.76329907e-05
      9.66675289e-05 5.37585474e-05 -1.06641426e-04 2.62192014e-04
      7.63989883e-05 1.65971705e-05 5.53936043e-05 7.56129521e-05
      9.83220816e-05 -6.82177779e-05 1.63516597e-04 2.14460684e-04
      -2.87061357e-05 6.04492925e-05 -2.10568076e-04 -8.37022089e-05
      -1.49018146e-04 3.47497640e-04 -5.33948332e-05 1.05194100e-04
      -3.67528301e-05 -1.68476516e-04 -2.45400151e-04 -3.69817630e-04</_>
    <_>
      -5.65118498e-05 -1.62831329e-05 8.42180816e-06 -1.34526068e-04
      -1.15971285e-04 -1.74055676e-04 8.14122177e-05 -1.06325147e-04
      -6.11475698e-05 1.15752600e-05 6.64533582e-05 6.11538198e-05
      -1.42737394e-04 2.33753221e-04 -4.75383713e-05 -2.60640354e-05
      -2.23594361e-05 1.06597894e-04 1.59159845e-05 -8.41920773e-05
      6.01991596e-05 -1.29293374e-04 1.57480288e-04 -6.63811152e-05
      9.96866584e-05 -2.46231048e-05 6.73144314e-05 9.95766241e-05
      9.65036961e-05 1.08920212e-04 -3.83553415e-05 1.28304979e-04
      -9.07991998e-05 -8.55594044e-05 8.24232920e-05 1.06823907e-04
      -3.95370880e-05 -4.73720320e-05 2.48600350e-04 -3.62418541e-05
      -1.70084895e-04 -1.90540538e-06 -6.62656312e-05 1.31567154e-04
      7.94709340e-05 -9.78440075e-05 1.03089980e-04 5.15327565e-06
      2.70315413e-05 6.62829771e-05 -6.41742736e-05 5.48981843e-05
      2.49906851e-04 -2.85245351e-05 6.65945045e-05 -1.17934096e-05
      -4.86342396e-05 1.12222287e-05 -2.76190967e-05 2.48182769e-04
      8.56716215e-05 1.06995700e-04 -5.70381962e-06 1.47139435e-04
      -9.92499627e-05 2.16263667e-04 9.54135321e-05 2.37273507e-05
      -1.33472437e-04 3.93913979e-05 -2.90729640e-05 -4.02291007e-05
      -5.92398319e-05 -7.12780238e-05 -3.02777789e-05 3.55773336e-05
      1.44634265e-04 -7.97858738e-05 4.70744926e-05 -5.03386145e-05
      -1.67384802e-04 -2.71927747e-05 9.09168230e-05 2.94124002e-05
      -1.12334841e-04 -4.27975392e-05 -3.32182503e-06 2.19737581e-06
      5.98499755e-05 -4.10111243e-05 2.11516613e-06 -3.14316785e-05
      8.87604256e-05 9.54697753e-05 2.16592161e-05 1.68984516e-05
      -4.08679480e-05 6.90426532e-05 1.11422542e-05 4.61996297e-06
      1.76595859e-05 -6.25760149e-05 2.33115661e-05 1.09680259e-04
      -4.60845586e-05 1.32815303e-05 -6.21954896e-05 9.91634297e-05
      3.30944094e-05 -1.49398285e-04 1.42366698e-05 1.93356045e-05
      2.29002890e-05 -3.29152208e-05 5.02994153e-05 1.66938058e-04
      1.70537951e-05 9.88997999e-06 7.01755635e-05 -5.80300548e-05
      -4.24673817e-05 1.64267127e-04 -9.16429053e-05 1.36582952e-04
      -4.26804800e-05 -3.78770419e-05 -1.12437148e-04 -2.98923318e-04</_>
    <_>
      -3.43165880e-06 -8.24077943e-05 -3.13872238e-06 7.44634781e-06
      -4.73570180e-05 -2.23479772e-04 8.55757462e-05 -5.87868853e-05
      -9.65616928e-05 1.07966407e-04 -8.53239835e-05 1.21454148e-04
      1.68906281e-05 2.19744339e-04 -1.15117604e-04 -6.98500226e-05
      7.76053002e-06 2.01286690e-04 -9.13103213e-05 -1.32153451e-04
      -2.58518357e-05 -6.45241817e-05 2.96436756e-05 -1.81392206e-05
      -1.57989154e-04 -2.50659286e-05 8.13219885e-05 2.30988990e-05
      -8.63244786e-05 -2.05582801e-05 -5.33494094e-05 6.83032631e-05
      8.14378145e-05 -3.97678305e-05 1.02873506e-04 1.54141715e-04
      -4.12456793e-05 -1.65964317e-04 1.52577661e-04 4.76934365e-05
      -7.21750766e-05 3.07221162e-05 -1.54091482e-04 1.59686970e-04
      2.05564240e-04 4.13990638e-05 8.61442022e-05 9.09438459e-05
      -6.09157505e-05 5.62054556e-05 -8.13847946e-05 -4.23942583e-05
      1.31680397e-04 -1.13119488e-04 -7.62155323e-05 9.20657840e-05
      -1.33230715e-04 2.69501470e-06 3.36821322e-05 1.53781250e-04
      -6.27958289e-05 5.33025959e-05 -1.45178128e-04 8.75135884e-05
      -5.28718047e-05 2.39764282e-04 1.61391887e-04 -3.89725756e-05
      -1.93648317e-04 6.42605009e-05 -9.45380380e-05 -1.07092863e-04
      -1.50459833e-04 1.75741388e-05 1.88433594e-04 -1.95122644e-04
      1.39862077e-05 -9.15144847e-05 8.41177389e-05 1.41004966e-05
      -9.93316789e-05 1.63930483e-04 -2.67481755e-05 1.65792575e-04
      6.07969414e-05 -2.22362087e-05 3.86491884e-05 -1.27555948e-04
      3.27348534e-05 1.49835454e-04 1.32559988e-04 -4.53146640e-05
      1.01760070e-05 -7.32895642e-05 1.07316919e-04 -7.28737068e-05
      3.80177225e-05 -1.02179029e-05 -8.59361971e-05 -1.79522631e-05
      9.63368730e-05 -1.58138966e-04 7.14375201e-05 -5.81554195e-06
      1.42719597e-04 2.00832830e-04 -1.77654481e-04 -8.05843010e-05
      -1.18522497e-04 -7.07349172e-05 1.34399030e-04 -9.33044066e-05
      3.40975239e-05 7.77370078e-05 1.31482462e-04 2.23773575e-04
      -1.18313706e-04 4.94826963e-05 -5.93781078e-05 -1.22141690e-04
      -1.18754826e-04 8.10000638e-05 -1.53676156e-04 -7.66560042e-05
      -3.40762454e-05 -2.01189061e-04 -7.44344725e-05 -1.67428836e-04</_>
    <_>
      1.66078223e-06 -4.55680056e-05 -1.95840566e-05 1.63510122e-04
      -4.76176829e-05 -1.21126766e-04 -4.50936204e-05 -1.37288325e-05
      -2.13876574e-05 4.83540061e-05 -1.48272247e-05 -3.59123223e-05
      -4.02405749e-05 1.32264540e-04 -6.62171879e-05 4.79389164e-05
      2.01894691e-05 1.33867812e-04 3.32989730e-05 -2.19349182e-04
      1.44025631e-04 -9.86944178e-06 1.22746287e-05 -9.87501116e-05
      -1.49740619e-04 8.19441775e-05 1.33247726e-04 -1.34890419e-04
      -9.40166647e-05 -2.54612023e-05 -1.05713298e-04 -8.85825159e-07
      1.28332176e-04 -1.05563311e-04 2.24884170e-05 8.96255588e-05
      -1.22422542e-04 1.18115298e-04 1.89988903e-04 3.90179048e-06
      9.45452775e-05 1.34729969e-04 -3.36276426e-04 1.74628265e-04
      1.40910037e-04 -1.92507898e-04 -5.31001615e-06 -3.36056219e-05
      -1.67155100e-04 1.30882006e-04 -6.15084573e-05 -1.24842190e-04
      -6.26170440e-05 1.80660980e-04 -6.22573134e-05 5.73182151e-05
      -1.85266559e-04 -8.83243483e-05 1.06952917e-04 2.46476382e-04
      -1.01900747e-04 5.07260156e-05 -1.53832691e-04 1.87578160e-04
      5.24922361e-05 1.56385504e-04 1.61121905e-04 -1.45277190e-05
      -2.41578440e-04 2.03892225e-04 -1.03962222e-04 3.16314254e-05
      -1.31984227e-04 -1.36077462e-04 -3.84841951e-05 3.82415747e-05
      -1.07221582e-04 2.52956506e-05 7.82685383e-05 -2.73460992e-05
      -1.63491859e-04 -4.35917136e-05 -1.01716061e-04 1.12503512e-04
      -4.18100281e-05 2.10324233e-05 3.12236225e-05 -7.57447269e-05
      3.12884404e-05 1.29692067e-04 1.23979247e-04 3.46737652e-05
      1.34190559e-05 2.01038911e-05 4.87601537e-05 -4.12465524e-05
      -4.57057722e-05 -5.98267870e-05 -3.45955996e-05 1.38136558e-04
      3.84495470e-05 -1.10563182e-04 2.36023916e-04 5.87554587e-06
      1.44364276e-05 7.70738043e-05 1.41166620e-05 6.52377275e-05
      -1.13994529e-05 6.28120142e-06 -3.19667815e-05 4.14162387e-05
      8.76493505e-05 -3.48470057e-05 2.30090736e-04 1.69362349e-04
      5.55156148e-05 -9.73608549e-05 -3.58049911e-05 -9.20607999e-05
      -1.15266565e-04 1.56886439e-04 -9.47215028e-07 2.03362270e-05
      -4.41755401e-05 -2.48644446e-05 -1.42141114e-04 -1.88737293e-04</_>
    <_>
      2.43825089e-05 -7.32695917e-05 -6.43997600e-06 3.25925612e-05
      2.47941334e-05 -4.30868604e-05 -2.36769793e-05 -2.49804434e-05
      -1.49190018e-04 -5.03942538e-05 -1.87426904e-05 9.47982262e-05
      1.23289783e-05 2.00414215e-04 -7.70924307e-05 -5.53463833e-05
      -1.12739195e-04 1.53513800e-04 -6.29272108e-05 -1.48761377e-04
      1.25496139e-04 -1.13684167e-04 -2.25820750e-05 9.33782794e-05
      -2.32441325e-05 6.83105391e-05 1.28421132e-04 -1.44567748e-05
      -1.33272799e-04 6.45668624e-05 -5.78820618e-05 -5.55763154e-06
      -1.05412772e-04 1.78936386e-06 -8.31896105e-05 2.13559961e-05
      -7.89866172e-05 8.22750881e-05 9.72449780e-05 5.81433633e-05
      8.65127731e-05 3.68348046e-05 -1.53305751e-04 2.80834629e-05
      6.91576715e-05 1.35498913e-05 6.27815780e-06 1.18926888e-04
      -4.95907843e-05 7.56081645e-05 -9.07688882e-05 -9.67597371e-05
      7.25536374e-05 6.85536579e-05 9.82309357e-05 5.93837103e-06
      1.03162296e-04 -3.60734339e-05 3.02526296e-05 2.10552898e-04
      4.88038386e-05 5.98069164e-05 -1.16526906e-04 1.13141374e-04
      4.63226461e-05 -4.79697792e-06 1.74366622e-04 -2.36850119e-05
      -2.00883806e-04 1.69944818e-04 9.05831257e-06 -4.84444390e-05
      4.69615989e-05 -1.67008948e-05 2.06823373e-04 -1.03885213e-04
      -3.55146840e-05 1.11265443e-04 1.03772640e-04 6.79749573e-05
      -7.77657915e-05 7.49835381e-05 1.06336054e-04 4.69188199e-05
      -7.07407817e-05 -7.58531023e-05 6.45851542e-05 2.90878870e-05
      1.08462162e-04 -1.02217718e-05 -3.32078562e-05 2.90638018e-05
      -2.57081465e-05 9.72213093e-06 -1.15699440e-04 7.95187771e-06
      3.51351882e-05 8.21493668e-05 1.23738391e-05 2.03737491e-05
      -1.78499668e-05 1.49821390e-05 7.46947044e-05 2.57704058e-04
      -3.39450380e-05 -3.49617876e-05 -2.82489000e-05 6.48283676e-05
      5.65091759e-05 -2.14728134e-05 6.32109513e-05 -1.63187105e-05
      8.74047109e-05 -8.22881848e-05 9.15710334e-05 1.03765618e-04
      -4.61129566e-05 1.72373970e-04 -2.23164734e-05 -2.16314715e-04
      -6.19261846e-05 1.31160792e-04 -1.11200185e-04 1.33765963e-04
      -4.18018644e-05 -3.63603090e-06 -1.71093605e-04 -2.46826123e-04</_>
    <_>
      -7.85449884e-05 -7.90456616e-05 -1.68305596e-05 -5.75525555e-05
      7.89771075e-05 2.55263119e-04 1.57330316e-04 -3.61033126e-05
      1.80911826e-04 1.76259942e-04 1.02857499e-04 8.18268236e-05
      8.31606885e-05 8.40537032e-05 -1.57240254e-04 1.15479188e-05
      4.48462270e-05 -4.08736878e-06 2.44239811e-04 2.27801547e-06
      9.94675793e-05 1.48285719e-04 2.89451651e-04 2.01553994e-05
      -3.55542215e-05 1.49503503e-05 -1.03093211e-04 3.19762376e-06
      -1.18436437e-05 4.96869579e-05 1.58919851e-04 -7.24712390e-06
      4.18082454e-05 4.62260468e-05 -1.65149453e-04 -1.03567851e-04
      3.55058146e-05 -1.43134544e-04 1.24075828e-04 -2.89643631e-05
      -3.94407434e-05 1.93047395e-04 -3.84283521e-06 1.21566654e-05
      -1.01816848e-04 -3.56866190e-06 -7.87270401e-05 -2.70407181e-05
      5.82226676e-05 -1.05884446e-05 2.22941471e-05 6.64917679e-05
      -4.39229334e-05 -1.37728093e-05 8.25590032e-05 -6.97750729e-05
      9.70235706e-05 7.55845176e-05 2.95104459e-04 -1.43824451e-04
      5.70562333e-05 2.21508872e-05 -1.80302450e-04 -5.30739635e-05
      1.85743978e-04 -6.61699369e-06 -1.52401499e-05 1.28902484e-05
      1.39927724e-04 -1.18266929e-04 -5.64354850e-05 1.41317259e-05
      3.36918492e-05 -7.14468551e-05 1.33272551e-04 -1.12277165e-04
      1.31354842e-04 1.87400394e-04 -1.27511667e-04 -1.56543756e-04
      1.12929869e-04 7.65275836e-05 1.99861810e-04 7.17413568e-05
      -3.02548506e-05 6.04246488e-05 -2.14104468e-04 -7.36234688e-06
      1.11469468e-04 -1.74272529e-04 6.78312208e-05 -2.89929285e-05
      -1.73220134e-04 -5.96827849e-05 -5.13407904e-05 -7.15350041e-07
      1.58774725e-04 1.54265013e-04 -1.04984292e-05 -8.92424578e-05
      6.78189681e-05 9.36255019e-05 -1.27204024e-04 2.09135669e-05
      1.05616840e-04 3.38533209e-05 -8.10337224e-05 8.48634299e-05
      -3.86356260e-05 -2.30863552e-05 -3.23963322e-05 7.12764995e-06
      1.67476159e-04 6.00697385e-05 1.21679259e-04 1.02299811e-04
      5.32024605e-05 2.13795320e-05 5.51969097e-05 -1.76272442e-04
      -2.96149683e-05 6.92704707e-05 1.17692907e-04 1.81505588e-04
      6.58362187e-05 -1.87803933e-04 -8.52918311e-05 7.49231622e-05</_>
    <_>
      -1.28783227e-04 1.93064407e-04 3.81396640e-05 -7.91151397e-05
      9.62482591e-05 2.18971603e-04 1.25046281e-04 -2.99465228e-06
      1.81738171e-04 1.71760021e-05 3.31369665e-05 6.37963385e-05
      1.17133595e-05 3.63411455e-05 -2.04303156e-04 -3.98452794e-05
      -3.48074573e-05 -9.21617175e-05 1.01291473e-04 -8.25449097e-05
      3.98871380e-05 1.48856925e-04 2.67727912e-04 1.31222769e-04
      -6.68615621e-06 1.31361114e-04 -1.62589367e-05 -6.93827169e-05
      -4.89768317e-05 6.39527716e-05 -4.66655956e-06 -9.44249186e-05
      -1.21385538e-05 -1.94947679e-05 -1.33427384e-04 -1.53248271e-04
      -1.05733874e-04 -3.94914314e-05 7.38026283e-05 -4.25540675e-05
      -2.63720285e-04 1.07475906e-04 1.20533121e-04 3.63297513e-05
      2.68658878e-05 3.44119071e-05 3.08481344e-06 -5.64374568e-05
      -8.57095947e-05 -1.14807960e-06 -5.73890611e-05 -1.61202843e-05
      7.73388965e-05 -1.06217558e-04 -4.33349072e-07 -1.11681547e-04
      1.49410524e-04 1.36848408e-04 2.15033579e-05 -1.31206485e-04
      1.37347001e-06 2.03151765e-04 -3.75958589e-05 -8.54930331e-05
      7.88832403e-05 -3.82293329e-05 -1.13824142e-04 7.57648231e-05
      2.42005281e-05 -8.71440861e-05 6.44215731e-07 9.57515681e-07
      -3.77427023e-05 -8.96615893e-05 1.58786177e-04 -8.69582582e-05
      5.22285227e-05 1.62241531e-06 -1.31701396e-04 -8.84743131e-05
      1.92497042e-04 1.88834209e-04 2.25660027e-04 2.12992862e-04
      -4.75501984e-05 9.21445535e-05 -9.92893256e-05 4.02530641e-05
      1.82072428e-04 9.27658675e-06 3.82249965e-07 -9.13262775e-05
      -1.25683320e-04 -1.05334992e-04 -7.22172554e-05 -7.61551200e-05
      2.04607219e-04 9.18851365e-05 -7.36333532e-05 -1.49354164e-05
      -1.53743371e-04 -4.86004137e-05 -1.43715763e-04 4.29208776e-05
      5.97307517e-05 -2.99837648e-05 -5.51977319e-05 1.30256056e-04
      1.54907757e-05 1.12535481e-05 3.46461420e-05 1.01580037e-04
      1.50527179e-04 5.99017148e-05 7.75169319e-05 7.47741651e-05
      -1.35577293e-05 3.66845561e-05 -1.45225466e-04 3.28838541e-05
      -7.48098610e-05 1.26856889e-04 2.71553854e-05 1.44371836e-04
      6.21149156e-05 -2.29122830e-04 -1.21604324e-04 -9.67675078e-06</_>
    <_>
      -1.85231984e-04 1.33784095e-04 4.02248079e-05 -1.42267003e-04
      -3.16556943e-05 7.79369147e-05 2.21876093e-04 -1.13165857e-04
      9.49625537e-05 7.62503478e-05 4.77900248e-05 8.44622919e-05
      -1.01517602e-04 1.32391549e-04 -1.27178893e-04 -1.05662242e-04
      -5.66621338e-06 7.28831810e-06 1.66383325e-04 2.01933781e-05
      1.05625859e-05 7.78802205e-05 2.85231508e-04 4.04162784e-05
      2.24517775e-04 4.97476276e-06 -1.41676110e-05 1.00201760e-04
      8.51879595e-05 5.85100970e-05 7.94395455e-05 4.02246806e-05
      -9.85927545e-05 -5.93778968e-05 -7.03388796e-05 -3.46210472e-05
      4.32556817e-06 -2.21057955e-04 1.26856801e-04 -1.15360403e-04
      -2.78377440e-04 4.99420639e-05 1.08941553e-04 1.26500017e-04
      6.68932898e-06 -6.61522281e-05 8.56270271e-05 -9.41342441e-05
      -4.08463393e-06 6.78673532e-05 -2.52012578e-05 1.71573047e-04
      2.23798037e-04 -7.62628915e-05 6.60652368e-05 -4.74422377e-05
      6.69306464e-05 6.26533729e-05 -1.93491051e-05 3.14394383e-05
      5.59535874e-05 1.65133795e-04 2.61398654e-05 2.85216283e-05
      -2.83387435e-05 1.06462088e-04 -2.29198595e-05 6.44761822e-05
      3.54519980e-05 -5.99365776e-05 2.17630204e-05 -3.11890144e-05
      -2.95292703e-05 -1.32885369e-04 2.18015393e-05 -4.44598700e-05
      2.82874709e-04 -3.35472141e-05 -6.56222182e-05 -1.43394398e-04
      4.95294371e-05 6.10794814e-05 1.20689016e-04 1.03453247e-04
      -1.15679613e-04 -3.91865578e-05 -9.41427279e-05 7.78787289e-05
      1.05497194e-04 -2.86922022e-05 -2.30069800e-05 -8.79456275e-05
      -3.94735180e-05 2.06335990e-05 5.64016082e-05 -4.03679542e-06
      1.49549480e-04 1.66981888e-04 6.41565057e-05 -3.16676596e-05
      -3.41687264e-05 4.89991835e-05 -1.55129179e-04 5.36642692e-05
      -3.89589186e-05 9.55537416e-06 -4.91958126e-05 1.70535404e-05
      7.98170458e-06 -9.45316424e-05 2.53574908e-05 6.45947075e-05
      1.20205979e-04 3.97101721e-05 4.60222072e-05 1.06531479e-04
      1.54809768e-05 7.09583128e-06 4.06811996e-05 3.71089227e-05
      -4.43182398e-05 1.02584716e-04 -6.14018018e-06 1.80161354e-04
      3.08586023e-05 -1.43676196e-04 -7.69883918e-05 -1.02431499e-04</_>
    <_>
      -1.50868145e-04 9.04035696e-05 2.01688526e-05 -4.00571953e-05
      8.30712743e-05 1.03928462e-04 2.37337284e-04 -3.18196871e-05
      7.67255042e-05 1.66202837e-04 -5.59693362e-05 8.76545164e-05
      9.10740346e-05 7.84502554e-05 -1.84374847e-04 -1.15668110e-04
      2.33089413e-05 4.88666155e-05 7.62817508e-05 1.19191419e-07
      -4.69323131e-05 1.51094471e-04 1.50871623e-04 7.55713918e-05
      -2.84581438e-05 4.67533719e-05 5.81266659e-06 2.60491061e-06
      -4.17624542e-05 -5.13490304e-05 4.23820566e-05 -6.25663015e-05
      3.63560794e-05 -2.22601102e-05 -9.50794274e-05 2.36725173e-05
      -2.82011879e-05 -3.05366906e-04 5.61555999e-06 -4.31314984e-05
      -2.06310113e-04 4.43130702e-05 5.64060538e-05 9.94145739e-05
      1.05010949e-04 7.00367382e-05 5.96997597e-05 -1.74352208e-05
      -6.81773454e-05 6.37802223e-05 -8.09145349e-05 7.71679333e-05
      7.77491368e-05 -1.72731816e-04 -5.61928791e-05 8.99131010e-06
      5.40546989e-06 6.10559146e-05 5.88306757e-05 -3.99973251e-05
      -4.93175357e-05 1.24986240e-04 -1.14777911e-04 -3.96013602e-05
      8.02273134e-05 9.93020949e-05 -4.29430875e-05 -4.46679951e-05
      1.87746100e-05 -9.01775129e-05 -2.43724426e-05 -4.89344202e-05
      -9.43397827e-05 -6.33868185e-05 1.86714286e-04 -2.25184747e-04
      1.51539847e-04 6.65245670e-06 -1.32207588e-05 -8.25326861e-05
      1.31086024e-04 2.04405005e-04 -1.25290780e-05 2.27884171e-04
      7.83338546e-05 1.89353177e-05 -4.75532179e-05 -5.10013233e-05
      1.15501294e-04 1.25549210e-04 6.69851579e-05 -7.81563649e-05
      -1.16869938e-04 -1.29719789e-04 1.16549934e-04 -1.03874445e-04
      2.05928402e-04 8.45526738e-05 -6.11498626e-06 -6.58034478e-05
      4.09609238e-05 -2.39979727e-05 -6.21354920e-05 -3.69321060e-05
      8.68925345e-05 1.05909327e-04 -1.38264673e-04 -1.39383599e-04
      -1.16792238e-04 -8.84906876e-06 9.37367877e-05 -1.85472090e-05
      1.42359830e-04 1.31871231e-04 5.46184274e-05 1.03669721e-04
      -1.16834395e-04 4.54018736e-05 -2.64957707e-05 9.47998501e-07
      -9.62723279e-05 -4.85295677e-05 -1.26221130e-06 1.78916453e-05
      7.27781153e-05 -2.77588348e-04 -5.01557224e-07 8.69594514e-05</_>
    <_>
      -1.77531270e-04 1.94300068e-04 -2.06064906e-05 1.41298588e-04
      3.76079588e-05 2.88715761e-04 1.59561314e-04 4.30480868e-05
      1.49233398e-04 1.95035624e-04 5.72619938e-05 -2.31207778e-05
      1.50862470e-04 6.75760839e-06 -1.36638206e-04 6.24267923e-05
      4.35567999e-05 -1.38878113e-05 2.40494206e-04 -1.35206181e-04
      8.44768729e-05 2.67005817e-04 2.04078024e-04 3.03642828e-05
      -3.08370509e-05 2.44619790e-04 3.61013917e-05 -1.77181268e-04
      -1.44775491e-04 -7.90878621e-05 8.88917712e-05 -1.66187703e-04
      9.42112893e-05 -1.60681171e-04 -1.26414176e-04 -3.84809464e-05
      -1.36557981e-04 -5.98714760e-05 -2.25359213e-06 -7.56761219e-05
      -3.15744837e-05 1.90972147e-04 -8.63218083e-05 1.28064727e-04
      5.15134489e-05 -1.47998609e-04 -2.68847498e-06 -1.97749439e-04
      -2.27444500e-04 8.72138116e-05 -1.18601740e-04 -3.13044529e-06
      -2.64643822e-05 5.36989901e-05 -7.08719163e-05 -2.87698822e-05
      -1.38334028e-04 -2.71962072e-05 2.55520368e-04 -1.54887748e-05
      -1.06676838e-04 1.67340986e-04 -1.52539724e-04 2.51376150e-05
      2.12251514e-04 6.22034204e-05 3.99580784e-07 -4.99732823e-06
      1.28031088e-05 1.50469414e-05 -5.04944801e-05 5.69226504e-05
      -1.00013371e-04 -2.82699999e-04 6.85199193e-05 -5.44111244e-05
      5.77347309e-05 1.02131729e-04 -6.80192097e-05 -2.37262691e-04
      1.83997166e-04 2.53573326e-05 -1.31367502e-04 2.21227529e-04
      -2.39338692e-06 2.33474566e-05 -1.21786172e-04 -4.49625804e-05
      1.85266224e-04 1.71549735e-04 8.54238097e-05 -1.87873393e-05
      -1.47124854e-04 -1.37861396e-04 1.61303091e-04 -1.18259188e-04
      1.66358790e-04 7.80755290e-05 -5.17278058e-05 1.24916362e-04
      -7.63472201e-07 2.84619858e-07 5.02378971e-05 -4.50554307e-06
      -1.13011056e-05 4.92090658e-05 1.88150534e-05 -3.89166817e-05
      -6.29099741e-05 1.12811097e-06 -1.32774794e-05 7.23811681e-05
      2.45801930e-04 4.75269844e-05 1.81629293e-04 9.03102118e-05
      7.13448535e-05 -6.39292994e-05 -6.46030094e-05 -2.57668598e-05
      -8.00569251e-05 4.05247411e-05 1.42365941e-04 1.16908690e-04
      1.27689651e-04 -1.39386204e-04 -5.01094655e-05 2.60407451e-05</_>
    <_>
      -8.32454243e-05 5.12079241e-05 8.81085361e-06 -8.69503583e-06
      1.16050956e-04 2.01409552e-04 9.93481590e-05 1.52929417e-07
      -2.06005279e-05 2.62626381e-05 2.16610788e-05 1.02532707e-04
      5.94263947e-05 1.00283280e-04 -1.30109373e-04 -9.77495874e-05
      -1.01366095e-04 3.40651059e-05 4.88727273e-05 -3.86941756e-05
      9.50727481e-05 5.37151718e-05 9.19192971e-05 1.81496769e-04
      6.70236186e-05 9.63029306e-05 7.38137096e-05 -3.92423026e-05
      -1.07418804e-04 6.14237943e-05 6.18043996e-05 -1.06931773e-04
      -1.05460975e-04 -1.50384876e-05 -2.40079942e-04 -6.12668009e-05
      -4.88654732e-05 -4.37314666e-05 1.27995363e-05 -8.56815313e-06
      -6.14813180e-05 9.58690289e-05 -4.09733229e-06 5.75739614e-06
      3.23036766e-05 6.60651713e-05 -4.95032918e-06 5.35498802e-05
      -3.93580813e-05 9.54030984e-05 -1.34780785e-04 3.42609492e-05
      9.28606896e-05 2.86605791e-06 1.16688090e-04 -4.39464602e-05
      1.75058376e-04 3.75881973e-05 1.01611055e-04 2.54508941e-05
      8.04560987e-05 1.19652512e-04 -1.07126987e-04 -2.05075630e-05
      1.00326673e-04 -9.69996618e-05 3.43482097e-05 1.00719835e-05
      -1.48138188e-05 5.04292584e-05 4.49878316e-05 -3.64607695e-05
      6.96076459e-05 -8.70562944e-05 2.67437543e-04 -1.88375212e-04
      7.19598247e-05 1.59021889e-04 4.56837661e-05 -1.63338082e-05
      1.55388625e-04 1.66524886e-04 1.16997369e-04 1.48791267e-04
      -4.71738022e-05 -8.06500975e-05 -5.28735472e-05 7.23922058e-05
      1.83578217e-04 -1.02366439e-05 -2.95969257e-05 -6.51140545e-06
      -1.46468243e-04 -9.59100144e-05 -9.04406697e-05 -4.26828265e-05
      1.77839567e-04 1.85864148e-04 5.32572521e-05 -1.08678632e-05
      -5.21222864e-05 8.53774545e-05 -5.98696097e-05 2.02979121e-04
      -4.12653935e-05 -1.18774646e-04 2.55310715e-06 3.87637301e-05
      4.24479149e-05 -2.54881743e-05 8.85005429e-05 2.83112095e-05
      1.26707950e-04 -2.01362836e-05 7.69682447e-05 3.80033307e-05
      -3.56542805e-05 1.74643559e-04 -1.16161709e-05 -1.66047859e-04
      -6.79578225e-05 4.11867768e-05 -5.71999954e-05 2.30408492e-04
      5.27806551e-05 -9.38317826e-05 -9.36876750e-05 -3.26583395e-05</_>
    <_>
      -8.85797781e-05 4.22094628e-04 1.10684130e-04 2.14183547e-06
      5.67497482e-05 -2.73154492e-05 -3.70847920e-05 1.67906219e-05
      4.24342470e-05 -1.87111655e-04 -1.09163288e-04 -1.74655554e-06
      -1.42570716e-04 -9.62030172e-05 -2.14552892e-05 -5.25704272e-05
      -9.95132505e-05 -1.41817640e-04 -1.59785122e-04 -1.63541612e-04
      -6.92526883e-05 5.45596704e-05 -3.31525189e-05 2.10629980e-04
      4.59574803e-05 1.73789813e-04 9.22100226e-05 -1.34641930e-04
      -7.11162866e-05 -4.18612717e-06 -2.19048321e-04 -1.11649038e-04
      -7.02506222e-05 -1.21506557e-04 4.42984565e-05 -1.03436869e-04
      -2.38643086e-04 9.29641319e-05 -1.12556394e-04 -1.19615361e-05
      -3.49104928e-04 -6.97726500e-05 2.12995496e-04 -1.81766554e-05
      2.28493736e-04 8.38921769e-05 1.29088017e-04 -1.67340659e-05
      -2.30813050e-04 6.22079415e-06 -8.11316859e-05 -1.19188924e-04
      2.28424455e-04 -1.00619050e-04 -9.99931945e-05 -4.29203792e-05
      7.86345117e-05 1.03727376e-04 -3.66532651e-04 -2.93966732e-05
      -5.95044221e-05 2.52945116e-04 2.01426170e-04 -8.24208255e-05
      -1.53540008e-04 -9.36100623e-05 -1.02764701e-04 9.35531352e-05
      -1.58372524e-04 6.72507813e-05 4.56747512e-05 -4.60444317e-05
      -5.85664566e-05 -6.10131210e-05 6.51145601e-05 5.04724339e-05
      -9.15679848e-05 -2.28963574e-04 -2.41261441e-05 3.59134901e-05
      8.86705748e-05 1.46298276e-04 1.07873602e-04 1.59015472e-04
      -5.96844147e-05 3.52155512e-05 1.67815306e-04 5.98026490e-05
      7.44401914e-05 2.16237182e-04 -7.71189298e-05 -9.31983959e-05
      1.81680516e-05 -9.46836153e-05 1.75925607e-06 -9.75871008e-05
      1.09161178e-04 -1.00514146e-04 -5.53306963e-05 8.51695149e-05
      -3.04534158e-04 -1.63200166e-04 -5.09777274e-05 4.45858786e-05
      5.82922303e-06 -2.97519964e-05 -1.71671059e-06 4.14562819e-05
      9.24245032e-05 7.97680696e-05 3.87481996e-05 9.63405109e-05
      -4.82911564e-05 2.14166339e-05 -2.48145770e-05 -8.46047769e-05
      -1.01362319e-04 4.42641722e-05 -3.04769463e-04 2.64840637e-04
      -5.12273436e-05 5.20840913e-05 -1.33938738e-04 -1.71358843e-05
      2.50387002e-05 -8.59446445e-05 -7.05173588e-05 -9.22893232e-05</_>
    <_>
      -1.27475680e-04 2.08633413e-04 6.67172499e-05 -1.48896754e-04
      -1.21879391e-04 -1.25827413e-04 1.03411854e-04 -7.63743374e-05
      -1.13110378e-04 -4.30265463e-05 5.74508340e-06 1.21422754e-05
      -2.05003249e-04 6.62142629e-05 5.03528208e-05 -1.15945506e-04
      -6.70271256e-05 3.12792836e-05 9.58236441e-08 6.42916621e-06
      -6.18065824e-05 1.78581304e-05 2.81769662e-05 -1.10952815e-05
      2.60633416e-04 -1.23269410e-05 6.84539336e-05 1.03376071e-04
      1.00598452e-04 1.44589822e-05 -8.57208142e-05 4.21734185e-05
      -1.82511067e-04 -1.24755126e-04 5.38704226e-05 8.92888565e-05
      -4.80925955e-05 -1.03610379e-04 3.48852627e-05 -7.46508886e-05
      -2.95404054e-04 -9.84235667e-05 1.42554098e-04 8.12290309e-05
      1.34764021e-04 -4.05891333e-05 1.32549438e-04 -5.27221382e-05
      -2.44486182e-05 9.99122713e-05 -7.20270691e-05 1.07547537e-04
      3.24200111e-04 -7.00777091e-05 -5.04116952e-06 3.07353366e-05
      -7.00898672e-05 7.36831134e-06 -2.58415675e-04 1.30441636e-04
      6.52244562e-05 1.87268364e-04 2.02838128e-04 2.78426141e-05
      -1.77991271e-04 1.47669372e-04 -6.17890919e-06 1.40953471e-05
      -2.92361092e-05 3.86349275e-05 7.64460565e-05 -7.69907056e-05
      -3.85194107e-05 -1.17239157e-04 -8.63852620e-05 3.35823534e-05
      1.94042863e-04 -2.00476235e-04 7.69997059e-05 3.04474793e-06
      -2.12421328e-05 -1.60282962e-05 -6.29469068e-05 6.61909507e-05
      -8.37103726e-05 -1.40015167e-04 1.23571182e-04 6.04376837e-05
      2.96113249e-05 1.42460747e-04 -5.95095444e-05 -6.30111608e-05
      1.14162140e-04 1.85962817e-05 1.39930562e-04 -2.98270443e-05
      -3.40901215e-06 2.43086815e-05 9.01283784e-05 3.03400811e-05
      -6.57350174e-05 -1.77309867e-05 -6.23057203e-05 1.09868131e-04
      -1.39056792e-04 -4.58077229e-05 -2.10094513e-05 -6.97606665e-05
      9.43923733e-05 -1.51443164e-04 7.39314346e-05 4.59890762e-05
      -1.10453679e-04 -1.08230790e-06 -3.98442789e-05 2.93108087e-06
      -4.20893448e-05 -3.68907899e-06 2.22967774e-05 1.61569289e-04
      -3.77884498e-05 2.55706965e-07 -1.88510181e-04 1.03103543e-04
      5.68940732e-06 -5.36123480e-06 -2.45716365e-05 -1.28137050e-04</_>
    <_>
      -9.26544963e-05 2.00715484e-04 6.54306714e-05 3.09315001e-05
      7.89222249e-05 -1.46547580e-04 8.84263136e-05 -1.86257439e-05
      -1.27402833e-04 -6.78539209e-06 -1.59381641e-04 3.30858857e-05
      9.25570384e-06 -2.85157457e-05 -8.37344851e-06 -8.84755500e-05
      -3.32441027e-06 5.30237485e-05 -1.32257803e-04 -2.85915376e-05
      -1.59179370e-04 9.64861392e-05 -1.15793773e-04 1.00144374e-04
      -1.97994777e-05 3.99571109e-05 7.95533706e-05 1.87674359e-05
      -4.90431739e-05 -1.07447726e-04 -1.20349636e-04 -6.24988243e-05
      1.98998696e-05 -1.03179620e-04 5.39975481e-05 1.33651381e-04
      -1.06755491e-04 -1.85632831e-04 -1.08552529e-04 -4.68585749e-05
      -2.17892564e-04 -7.70190018e-05 9.91323395e-05 3.33159951e-05
      2.11030419e-04 7.19772361e-05 1.11873494e-04 2.94937454e-05
      -1.34601301e-04 5.54822436e-05 -6.27427507e-05 -5.39734810e-06
      2.00372902e-04 -1.86135439e-04 -1.05292325e-04 6.28989583e-05
      -1.06235901e-04 -1.11312045e-06 -2.00101771e-04 8.95100748e-05
      -7.91174680e-05 1.65537131e-04 8.79239306e-05 -4.97168548e-06
      -1.19177137e-04 9.53880372e-05 -1.05793679e-05 -9.29743765e-05
      -3.66943241e-05 2.55154100e-05 3.55034604e-06 -1.12141002e-04
      -1.11639776e-04 1.31488678e-05 8.71076991e-05 -1.65260470e-04
      4.31204244e-05 -1.69288542e-04 1.16748350e-04 -4.31773788e-06
      4.62908174e-05 1.66427257e-04 -2.02052630e-04 1.34342379e-04
      1.34837523e-04 -6.80368466e-05 1.28846630e-04 9.41310918e-06
      -2.40182835e-05 2.75896338e-04 4.97033616e-05 -2.72709058e-05
      -3.00051597e-05 -1.32761663e-04 2.17671259e-04 -1.01076956e-04
      7.72939748e-05 -6.58598219e-05 2.33177070e-05 -1.62776869e-05
      -9.09165919e-06 -9.69843531e-05 -3.02715471e-05 -6.22220250e-05
      6.74245030e-06 9.08958391e-05 -1.03118160e-04 -2.46776879e-04
      -8.16586689e-05 -1.90775409e-05 1.22959696e-04 -5.73209873e-05
      -7.75260996e-05 1.15871888e-04 9.82001984e-06 -3.18416569e-05
      -1.64031415e-04 5.39705070e-06 -1.10983121e-04 1.12101596e-04
      -6.13282318e-05 -1.20238401e-04 -1.72150496e-04 -1.12831331e-04
      7.31051332e-05 -1.35080903e-04 6.21206855e-05 1.97170466e-05</_>
    <_>
      -1.07206237e-04 2.49201694e-04 3.79560042e-05 2.32245176e-04
      2.24890773e-05 -3.87023501e-05 -1.26973091e-05 7.75161679e-05
      -5.06286269e-05 -1.27354879e-05 -1.21935824e-04 -1.33575944e-04
      -3.70255984e-05 -1.77887530e-04 1.92563439e-05 1.38804069e-06
      -7.38028302e-06 -3.14286590e-05 -1.77919756e-05 -1.04062237e-04
      -2.78898424e-05 1.53297908e-04 -1.68414190e-04 2.36355500e-05
      1.14730456e-05 1.83141470e-04 1.60663025e-04 -1.76147805e-04
      -9.14845587e-05 -1.50634194e-04 -1.79234921e-04 -1.76507863e-04
      2.77250638e-05 -2.16793880e-04 2.02226738e-06 5.60361332e-05
      -1.47468178e-04 7.38070739e-05 -7.44880745e-05 -4.83903568e-05
      -6.46428307e-05 3.75734999e-05 -3.86342690e-05 5.06563047e-05
      2.15006687e-04 -1.60650976e-04 7.14208727e-05 -7.48408202e-05
      -3.09880736e-04 1.53555520e-04 -5.65940500e-05 -1.16079973e-04
      1.41440569e-05 1.24578859e-04 -1.57852191e-04 8.46019029e-05
      -2.39527770e-04 -5.80343949e-05 -1.62090728e-04 1.78819610e-04
      -1.33342430e-04 1.71635314e-04 8.60232103e-05 7.83421347e-05
      -1.75873738e-05 1.40819739e-05 5.64491493e-05 -2.40509980e-05
      -1.31898661e-04 2.02632378e-04 2.27302844e-05 4.23644051e-05
      -1.14685339e-04 -1.62867247e-04 -1.69149716e-04 6.52658709e-05
      -8.94133482e-05 -1.42472010e-04 7.46781006e-05 -1.48821264e-05
      1.69935029e-05 -4.17687697e-05 -3.65279819e-04 1.45844635e-04
      2.64701757e-05 -8.15243911e-05 1.76370741e-04 2.62203794e-05
      -1.76617177e-05 3.43377877e-04 6.32220472e-05 3.19259198e-05
      1.58553776e-05 -1.17551353e-04 2.09188860e-04 -9.45436259e-05
      4.83557124e-05 -1.88044825e-04 2.99998574e-05 1.92860171e-04
      -9.69229659e-05 -7.22251280e-05 1.76639311e-04 -5.00865899e-05
      -8.22841102e-05 2.35378702e-05 8.99428996e-05 -1.24228143e-04
      1.68179977e-05 8.09802514e-05 -6.70571244e-05 8.45291943e-05
      -2.42529786e-05 -1.94458753e-05 1.16046533e-04 -7.54792782e-05
      -8.55187500e-06 -8.58698040e-05 -1.08362692e-04 2.04933051e-04
      -7.86181772e-05 -6.04567686e-05 -3.67772300e-05 -7.40810283e-05
      2.15334876e-06 4.78881993e-05 3.29078625e-06 -6.37354970e-06</_>
    <_>
      -4.04611310e-05 1.90118793e-04 4.37524250e-05 3.27587877e-05
      1.02284132e-04 1.87485821e-05 -1.34752263e-05 4.23659876e-05
      -1.91348940e-04 -1.50279069e-04 -9.60544858e-05 3.44187283e-05
      -2.55569503e-05 2.99226358e-05 -8.43021826e-06 -1.44680322e-04
      -1.45851329e-04 3.94939161e-05 -1.26647865e-04 -8.23418013e-05
      4.67985992e-05 -3.26009904e-05 -1.72477798e-04 2.15849112e-04
      1.19449709e-04 1.08849650e-04 1.86174409e-04 -6.88780638e-05
      -1.45014128e-04 -2.49352779e-05 -8.64027097e-05 -1.09391440e-04
      -1.87941827e-04 -6.02248329e-05 -1.16775598e-04 8.96938786e-07
      -1.13988557e-04 4.03781305e-05 -1.29991313e-04 2.14202209e-05
      -2.49278874e-05 -7.08250591e-05 2.98451105e-05 -5.63890135e-05
      1.73384600e-04 8.03381336e-05 5.08147932e-05 9.16426216e-05
      -1.30608532e-04 1.24812359e-04 -1.46533930e-04 -6.12663644e-05
      1.62636163e-04 1.28488718e-05 3.61054736e-05 2.47578682e-05
      1.29265361e-04 -5.43663482e-05 -1.68545273e-04 1.69971318e-04
      2.29220204e-05 1.35860566e-04 7.47797312e-05 2.83274458e-05
      -2.52096106e-05 -1.65507110e-04 8.80688094e-05 -1.15472712e-05
      -1.76074711e-04 2.07611476e-04 1.15786621e-04 -5.74940968e-05
      6.61759623e-05 -3.91043286e-05 2.13207997e-04 -1.03610968e-04
      -1.56606093e-05 3.72000941e-05 1.59761737e-04 1.25488892e-04
      6.29629649e-05 1.26212413e-04 -4.65484190e-05 1.08226581e-04
      -3.75614727e-05 -1.46250357e-04 2.06794837e-04 9.23980479e-05
      7.46784572e-05 1.49408792e-04 -9.76624870e-05 2.10854596e-05
      -2.25533349e-05 -8.14427767e-05 -2.45396404e-05 -3.56575911e-05
      8.47162810e-05 3.28533060e-05 1.03561964e-04 4.94658088e-05
      -8.64137110e-05 6.39577192e-05 7.59449031e-05 2.80904234e-04
      -1.42785444e-04 -1.12410664e-04 4.30275031e-05 -7.62913041e-05
      1.14940922e-04 5.28288547e-05 1.11087400e-04 1.34524053e-05
      -1.70278036e-05 -5.58681531e-05 8.21371304e-06 -6.32672818e-05
      -1.14477167e-04 2.45646050e-04 -7.30677421e-05 -3.31217379e-05
      -2.54160223e-05 -3.84316190e-05 -2.02463008e-04 1.06177977e-04
      -8.31131911e-06 5.45094335e-05 -6.87394495e-05 -1.14529677e-04</_>
    <_>
      -1.01703416e-04 -7.30867614e-05 3.04326107e-07 -1.50124717e-04
      -1.28156957e-04 -2.03701522e-04 1.43779776e-04 -1.51022774e-04
      -1.10069195e-04 5.49201905e-05 6.13031516e-05 -5.34608319e-07
      -1.25662700e-04 1.72565851e-04 9.80223267e-05 -4.50403568e-05
      5.64773982e-05 7.93792642e-05 1.08713735e-04 1.48424850e-04
      2.60689967e-06 -9.32105904e-05 1.08842025e-04 -1.63635690e-04
      2.66559829e-04 -1.71709034e-04 2.03688182e-06 2.22891744e-04
      1.78329778e-04 3.50517403e-05 1.23643360e-04 1.89394297e-04
      -1.29131789e-04 -7.02000325e-05 8.11324571e-05 1.87125072e-04
      7.42336924e-05 -1.98166323e-04 9.10193339e-05 -4.62108364e-05
      -1.39125870e-04 -8.09476915e-05 -7.34710466e-06 1.22140453e-04
      -5.33014713e-07 -1.36019094e-04 1.05302810e-04 -3.71331262e-05
      1.65331163e-04 1.30465123e-04 -2.02192114e-05 2.80276057e-04
      2.48935423e-04 5.38720269e-06 8.77787170e-05 8.65454858e-05
      -1.31957175e-04 -6.24468448e-05 -2.11178303e-05 2.06843091e-04
      8.27378171e-05 -3.53330797e-05 1.07226544e-04 1.53788307e-04
      -1.50318796e-04 2.58078391e-04 5.84439767e-05 -3.25257461e-05
      3.59953992e-05 2.65916988e-05 3.64698972e-05 -3.88349872e-05
      -4.69691804e-05 -8.11377759e-05 -1.39670432e-04 3.59399892e-05
      2.93225108e-04 -5.95696220e-05 1.07572661e-04 -3.69416593e-05
      -1.48835883e-04 -7.66082157e-05 -9.80454497e-05 -9.20323364e-05
      -6.95537892e-05 -1.58434530e-04 9.44375279e-06 2.41940888e-05
      -9.15325472e-06 -9.75062721e-05 -8.16592637e-06 -5.48360404e-05
      9.97068710e-05 1.10044130e-04 1.44425925e-04 8.39597487e-05
      -1.03097977e-04 4.45651822e-05 1.97657762e-04 -1.25498873e-05
      1.95964894e-04 9.08828661e-05 -1.94014297e-06 7.79805850e-05
      -1.03079044e-04 -1.98375869e-06 -4.67145765e-05 -1.16465548e-04
      2.21101942e-07 -1.85138808e-04 3.07099945e-05 -2.35931384e-05
      -7.41391923e-05 1.04050068e-05 -2.44831899e-05 7.48225139e-05
      8.08576442e-05 -6.47546767e-05 2.21268041e-04 -2.93230096e-05
      9.22851029e-07 -4.98397276e-05 -6.80993617e-05 1.00979043e-04
      -3.03425968e-05 8.95490884e-05 4.05592727e-05 -1.11795074e-04</_>
    <_>
      -5.31227597e-05 -1.01683567e-04 -3.79277226e-05 2.02442916e-05
      -1.08438589e-05 -1.43032841e-04 1.36593153e-04 -4.58507784e-05
      -1.28067695e-04 1.83017561e-04 -9.58756209e-05 2.76763458e-05
      1.06323743e-04 7.11026805e-05 1.92196749e-05 -8.30721619e-05
      9.01164021e-05 1.79937968e-04 -1.56042570e-05 1.06797437e-04
      -1.35980416e-04 2.74215290e-05 -9.09253285e-05 -5.18198467e-05
      -3.48502945e-05 -1.34075497e-04 3.32507771e-05 1.00711397e-04
      -1.22451183e-05 -1.39697222e-04 8.66068876e-05 5.18419438e-05
      9.37523364e-05 -1.83907814e-05 4.77534813e-05 2.51455262e-04
      1.13956252e-04 -3.40136321e-04 -6.88665168e-05 1.93464166e-05
      2.24366595e-05 -6.59804500e-05 -5.10190148e-05 1.04426013e-04
      1.30049841e-04 5.57508574e-05 6.00897329e-05 5.07527511e-05
      4.53853427e-05 1.04584229e-04 -6.08833616e-05 9.50977337e-05
      3.40440893e-05 -1.26268336e-04 -2.93587782e-05 1.71682579e-04
      -2.06318087e-04 -3.10466094e-05 1.17873373e-04 1.05797706e-04
      -4.89027479e-05 -6.17940459e-05 -8.02777722e-05 6.45731925e-05
      -3.42465246e-05 2.22159419e-04 1.00137891e-04 -1.20308447e-04
      3.76738280e-05 -1.66984155e-05 -3.29908034e-05 -9.06681962e-05
      -1.08224653e-04 4.94392298e-05 9.09403825e-05 -2.00617229e-04
      1.41218290e-04 -6.36817458e-06 1.70272877e-04 -2.43994418e-05
      -1.41743712e-05 5.39494686e-05 -3.09793366e-04 8.13235456e-05
      1.94623484e-04 -1.17856041e-04 -2.17089655e-06 -1.34119109e-04
      -5.86259484e-05 1.54735812e-04 1.14005634e-04 -5.75334252e-06
      -1.95660341e-05 -9.67616579e-05 2.62167800e-04 -5.46400297e-05
      -9.83608061e-06 2.86955856e-06 9.02318643e-05 -6.78696088e-05
      2.67285883e-04 -1.14438990e-05 7.30629181e-05 -9.74176437e-05
      7.57926609e-05 1.71273481e-04 -1.47271232e-04 -3.42639338e-04
      -1.90802384e-04 -5.87872601e-05 1.17135714e-04 -1.88618636e-04
      -4.81174320e-05 1.30206565e-04 6.59524585e-06 7.40207834e-05
      -1.31301160e-04 -8.57521991e-06 1.03489219e-04 -7.75904409e-05
      -2.64766622e-05 -2.24176212e-04 -1.09116118e-04 -1.53355955e-04
      3.98596676e-05 -1.01997495e-04 1.14002207e-04 1.39685362e-04</_>
    <_>
      -3.76993630e-05 -1.41539771e-04 -6.70135778e-05 2.70761928e-04
      -4.74260014e-05 -1.89749353e-05 -2.07472312e-05 3.25620167e-05
      -6.82207319e-05 1.50414737e-04 -8.51947789e-06 -1.61967866e-04
      8.80347143e-05 -5.32064805e-05 4.87051584e-05 6.32041119e-05
      9.41155085e-05 1.08451626e-04 1.37239782e-04 4.34074173e-05
      5.40591354e-05 8.65443362e-05 -9.41072358e-05 -1.57832226e-04
      -1.77335751e-05 -1.60409563e-05 7.96231252e-05 -6.96279094e-05
      -6.48620262e-05 -1.50564665e-04 5.82385219e-05 -4.39967771e-05
      1.34598944e-04 -9.52112023e-05 -6.09776143e-05 1.74513858e-04
      4.59800140e-05 1.46350849e-05 -8.84399924e-06 5.74738879e-05
      2.17155000e-04 1.17200078e-04 -2.77890009e-04 1.18310483e-04
      3.48503563e-05 -1.90769060e-04 -9.18216465e-05 -7.24119964e-05
      -1.06720690e-04 2.24767879e-04 -2.52944773e-07 -6.87592274e-06
      -2.45764619e-04 2.35378175e-04 -8.90377705e-05 1.69622930e-04
      -3.39114515e-04 -1.42379751e-04 2.21580660e-04 1.93123007e-04
      -1.09613262e-04 -7.48283273e-05 -9.37109653e-05 1.63042205e-04
      1.16151961e-04 1.39966272e-04 1.50671156e-04 -8.85957779e-05
      3.27944399e-05 1.76751608e-04 -3.87856198e-05 8.64033573e-05
      -1.13061280e-04 -1.66125901e-04 -2.13732419e-04 7.71291961e-05
      -5.61234701e-05 1.09746783e-04 1.37306779e-04 -4.46645281e-05
      -6.21636937e-05 -1.58255105e-04 -4.64274577e-04 -3.23601744e-05
      4.52743952e-05 -9.31063987e-05 4.50214384e-06 -6.58388744e-05
      -4.93087100e-05 1.62817712e-04 1.31196502e-04 1.21686353e-04
      -3.97298500e-05 -4.99707203e-05 2.18751535e-04 -1.40254097e-05
      -8.79192448e-05 -1.22089754e-04 1.18742544e-04 1.58493247e-04
      2.36874301e-04 6.17084734e-05 2.53006845e-04 -7.91645580e-05
      -2.59789031e-05 8.42196532e-05 8.98199505e-05 -1.72504617e-04
      -4.81021198e-05 1.04988394e-05 -9.14242773e-05 -2.85552051e-05
      6.05550804e-06 -2.80918666e-05 1.44400547e-04 1.16367737e-05
      1.19465221e-04 -1.45259110e-04 1.49235217e-04 -4.10413886e-05
      -1.86182860e-05 -1.30685803e-04 8.77258353e-05 -7.25923455e-05
      -6.11758014e-06 1.49526866e-04 6.85157866e-05 1.20167198e-04</_>
    <_>
      1.48778427e-05 -1.60528900e-04 -1.54635818e-05 5.83984220e-05
      1.00675308e-04 1.17701402e-05 5.08544645e-06 -3.77663891e-05
      -2.89746531e-04 -1.37276102e-05 -4.48303908e-05 6.14668534e-05
      1.17645868e-04 1.44575402e-04 6.87181964e-05 -1.05968145e-04
      -1.13018825e-04 1.60237934e-04 -2.35739244e-05 2.37993754e-05
      1.03212369e-04 -1.13449874e-04 -1.95899876e-04 1.16938128e-04
      1.02479040e-04 6.97275254e-06 1.18782729e-04 2.97454280e-05
      -1.14833383e-04 1.54934296e-05 8.24517992e-05 -1.52570574e-05
      -1.85725876e-04 8.62455454e-06 -2.10526676e-04 1.23628750e-04
      3.82033322e-05 -1.51799677e-05 -1.18879274e-04 6.50633156e-05
      2.50513869e-04 -3.80663982e-06 -1.54375608e-04 -6.34669414e-05
      -3.50159962e-06 5.39685789e-05 -2.66915704e-05 1.54237714e-04
      7.81871495e-05 1.59385192e-04 -1.14600400e-04 4.61129894e-05
      2.27619621e-05 1.28275191e-04 1.62914614e-04 1.02457081e-04
      1.18022275e-04 -1.39497104e-04 1.02646256e-04 2.47749442e-04
      1.06347761e-04 -6.13292868e-05 -1.10673616e-04 9.71119225e-05
      8.59438587e-05 -7.59028917e-05 1.86208621e-04 -1.21042198e-04
      -5.89008960e-05 1.98496346e-04 9.48543675e-05 -4.49234540e-05
      1.39417083e-04 -1.38033511e-05 2.24422780e-04 -2.06692072e-04
      2.39260116e-05 2.63744354e-04 2.38199675e-04 1.10969275e-04
      -2.52699811e-05 5.32055274e-05 -1.18310229e-04 -5.53751706e-05
      -1.32521536e-05 -2.03889635e-04 1.17332827e-04 6.13307857e-05
      7.41111144e-05 -3.90906898e-05 -5.32031336e-05 1.02308164e-04
      -6.29539500e-05 -7.10082304e-06 -7.19577074e-05 4.95551103e-05
      4.91149103e-06 1.24106053e-04 1.79437222e-04 -1.46819521e-05
      1.51973072e-04 2.06063589e-04 1.09407789e-04 3.50185437e-04
      -1.37757030e-04 -1.20168210e-04 4.65324483e-05 -1.11241978e-04
      3.84896157e-05 -2.58705277e-05 9.16998251e-05 -7.42166958e-05
      2.40319605e-05 -9.06535060e-05 1.30763656e-05 -4.65398844e-05
      -4.91670107e-05 2.47978081e-04 1.51169530e-04 -3.22713749e-04
      8.71778411e-06 -9.66374864e-05 -1.16160540e-04 1.42813762e-04
      -1.50261576e-05 1.42831530e-04 -1.93284995e-05 -7.55065848e-05</_>
    <_>
      2.91092219e-05 -6.28746493e-05 -2.97803144e-05 1.57980539e-04
      1.29611086e-04 1.06496791e-05 2.47493317e-05 5.59840992e-05
      1.29477921e-05 7.07104409e-05 -1.28381071e-04 5.80000888e-05
      1.72078318e-04 -1.02098689e-04 -8.58435378e-05 -2.88120427e-05
      4.10967004e-05 2.38790544e-05 -1.26558458e-04 3.01920863e-06
      -8.35637911e-05 5.24699753e-05 -1.39793337e-04 4.18532472e-05
      -2.85582471e-04 4.69549122e-05 2.26077900e-05 -1.04429026e-04
      -2.07374338e-04 -1.23492529e-04 -9.05533943e-06 -1.02567195e-04
      1.72139655e-04 5.09927013e-05 1.23526479e-05 3.76136195e-05
      -4.77028407e-05 -9.02011307e-05 -1.36209157e-04 3.31469382e-05
      1.03387640e-04 -8.91326818e-06 -7.99694681e-05 -2.83758127e-05
      9.76399460e-05 1.22607220e-04 -2.12204286e-05 7.59029499e-05
      -1.00804769e-04 -4.81514508e-05 2.90322419e-06 -1.19816497e-04
      -1.75308145e-04 -1.08908949e-04 -1.27681284e-04 7.87343888e-05
      -4.73983819e-05 -1.20982793e-06 7.49718893e-05 -9.47115623e-05
      -1.64419675e-04 -6.43008243e-05 -8.49951830e-05 -5.42937923e-05
      8.35106475e-05 -3.86601860e-05 6.46467288e-06 -9.99412950e-05
      -7.36186666e-06 1.59916835e-05 -4.96379289e-05 -7.96505628e-05
      -8.86162888e-05 1.25159946e-04 1.73149456e-04 -2.22344199e-04
      -1.42165969e-04 3.54224139e-05 6.99853917e-05 1.93876876e-05
      9.64944848e-05 1.45874539e-04 -1.32992383e-04 1.27131498e-04
      2.06927172e-04 4.19810131e-05 7.94067091e-06 -9.77708623e-05
      -3.45814733e-05 1.23757782e-04 9.00047671e-05 -8.69666201e-06
      -1.06557847e-04 -1.88908976e-04 6.63408209e-05 -8.24157178e-05
      8.40415669e-05 -8.79875734e-05 -9.48082961e-05 -7.34057221e-06
      4.66175152e-05 -8.01187489e-05 8.15554522e-05 -1.46751656e-04
      1.70687941e-04 1.48991996e-04 -1.06336382e-04 -2.24846081e-04
      -1.84470686e-04 1.50824038e-04 1.16538176e-04 -1.06405219e-04
      2.80535205e-05 1.06348460e-04 3.73421753e-05 -2.59844455e-05
      -1.01283782e-04 3.99204364e-05 -1.27409381e-04 -2.78179341e-05
      -5.55007027e-05 -1.21579767e-04 2.13013464e-05 -2.49381148e-04
      3.31226511e-05 -9.58245364e-05 1.05784551e-04 1.84198128e-04</_>
    <_>
      3.65538253e-05 -5.22555274e-06 -3.07111113e-05 2.46574957e-04
      7.53255954e-05 1.17534932e-04 -1.10852874e-04 8.84426845e-05
      2.50943103e-05 6.62806924e-05 -5.34322862e-05 -7.37235387e-05
      1.59832678e-04 -1.52756285e-04 -1.89966831e-05 7.79788461e-05
      3.79461962e-05 -1.67026446e-05 9.74821432e-06 -6.07296424e-05
      2.14096817e-05 7.11792090e-05 -1.65491641e-04 3.12705961e-05
      -1.86273872e-04 1.15058072e-04 3.15800462e-05 -1.97597459e-04
      -1.38749820e-04 -9.76953161e-05 -3.23523673e-05 -1.29711087e-04
      1.47197527e-04 -4.21633340e-05 -7.38461968e-05 6.54127871e-06
      -2.18305613e-05 1.54739551e-04 -1.08314780e-04 3.50998416e-05
      2.28538265e-04 8.73300669e-05 -1.63511155e-04 -1.86569123e-05
      3.42875433e-06 -4.24897589e-05 -8.51260047e-05 -3.23079512e-05
      -1.50397769e-04 2.25642543e-05 1.42568695e-06 -1.62754717e-04
      -2.83603149e-04 1.12344183e-04 -1.04351813e-04 6.47871420e-05
      -9.21899118e-05 -6.57021446e-05 1.33973153e-04 -2.40684767e-05
      -1.48204548e-04 -3.41993582e-05 -1.28747939e-04 -3.65070482e-05
      1.32757661e-04 -8.93110700e-05 3.11339427e-05 -3.38847640e-05
      -8.08027198e-06 8.71436059e-05 -4.69405568e-05 1.04137536e-04
      -3.99074233e-05 -2.43998456e-05 -2.10124217e-05 -7.10219456e-06
      -2.39619971e-04 9.15580167e-05 -4.05054789e-06 1.18786102e-05
      6.29812348e-05 -1.88283393e-05 -1.97032525e-04 2.86996055e-05
      8.21923022e-05 5.25312607e-05 -1.75450111e-06 -7.43715646e-05
      -5.38906306e-06 1.40363278e-04 9.00256418e-05 1.09273460e-04
      -7.75409280e-05 -8.49453063e-05 2.63470174e-05 -7.31081163e-05
      8.37364951e-06 -1.12773399e-04 -6.24381501e-05 8.22119182e-05
      1.51654795e-05 -5.63445574e-05 1.56685011e-04 -1.02508624e-04
      5.79094303e-05 5.68518990e-05 8.92364624e-05 -2.94906986e-05
      -5.34166502e-05 1.26930332e-04 -6.85628547e-05 2.17392838e-07
      7.62860145e-05 1.36085218e-05 8.43658199e-05 -3.14303979e-05
      1.26153600e-05 -5.36542539e-05 -8.32977385e-05 -3.24792418e-05
      -2.71345507e-05 -2.99704971e-05 8.54623941e-05 -1.45762038e-04
      1.88629074e-05 3.63319705e-05 2.59203407e-05 1.18199379e-04</_>
    <_>
      6.26205219e-05 -3.91038411e-05 -2.82099390e-05 1.17676806e-04
      1.84434364e-04 1.40715230e-04 -8.75292390e-05 9.17095749e-05
      -6.35517572e-05 -6.75877964e-05 -7.96481181e-05 2.41531234e-06
      1.35215043e-04 -3.43816428e-05 -1.36931567e-05 -8.27992244e-06
      -1.02364691e-04 -1.14400773e-05 -9.29659072e-05 -6.72854367e-05
      9.27105721e-05 5.44448812e-06 -1.80241841e-04 1.68283615e-04
      -1.55783622e-04 1.09466098e-04 7.28868108e-05 -1.30669112e-04
      -1.81168216e-04 -3.15292345e-05 -4.44636935e-05 -1.15642950e-04
      8.11983057e-07 6.18143604e-05 -1.69006540e-04 -9.26207576e-05
      -8.78341161e-05 1.41055338e-04 -1.43136058e-04 5.68524374e-05
      2.20884380e-04 5.42035777e-05 -8.90096926e-05 -1.01112120e-04
      -1.53644589e-06 1.18227261e-04 -5.80014457e-05 1.16028503e-04
      -6.88159780e-05 1.61939770e-05 -2.56437143e-05 -1.39522948e-04
      -1.39076903e-04 7.98940018e-05 5.43993119e-05 -6.14271585e-06
      1.60766824e-04 -5.54757898e-05 6.64393883e-05 2.70047494e-05
      -2.29446250e-05 -4.03349186e-05 -9.31197210e-05 -1.62495337e-06
      1.45763726e-04 -2.32822189e-04 4.97076689e-05 -7.28610321e-05
      -8.21305439e-05 1.19227203e-04 2.16896788e-05 1.28434694e-05
      1.03061851e-04 5.31981823e-05 2.41385424e-04 -1.36679722e-04
      -1.61787510e-04 1.98025256e-04 8.54594982e-05 9.39189486e-05
      5.20569156e-05 1.06491425e-04 4.00848330e-06 2.56590865e-05
      3.33893659e-05 -5.08858557e-06 6.93387192e-05 2.87564617e-05
      2.21349983e-05 5.13163695e-06 -1.55298439e-05 7.26029757e-05
      -1.12939917e-04 -1.04692066e-04 -1.22904879e-04 -3.46952879e-06
      7.74024811e-05 1.37579009e-05 4.08360120e-06 -4.58980276e-06
      -2.81639932e-05 9.62757840e-05 6.99982775e-05 1.53787711e-04
      1.36179870e-06 -6.47587876e-05 3.89371817e-05 -3.21712059e-06
      1.85634781e-05 1.60030759e-04 2.37367349e-05 -2.07723697e-05
      7.40969481e-05 -5.71059900e-05 4.45844053e-05 -1.18160693e-04
      -7.25679274e-05 1.61804375e-04 -6.92438625e-05 -1.41083525e-04
      -1.40829088e-05 -3.45278095e-05 1.45945105e-05 3.21960542e-05
      -1.23141763e-05 4.53461289e-05 -4.51351880e-05 5.94220473e-05</_>
    <_>
      -5.26480289e-06 4.36599403e-05 -4.62725511e-05 1.60166237e-04
      -5.17701010e-05 1.57318238e-04 -1.33934984e-04 8.94928598e-05
      5.09967358e-05 -2.23040115e-05 1.26368657e-04 -1.69598119e-04
      8.10107213e-06 -9.65216823e-05 8.68412462e-05 1.85452998e-04
      -1.43295538e-05 -1.23258738e-04 1.58722163e-04 -8.05510354e-05
      1.57864692e-04 2.50089433e-05 -1.43380958e-05 -7.85208176e-05
      1.14203522e-05 1.08113607e-04 2.18280475e-05 -1.61346368e-04
      -9.06396963e-06 5.86386534e-07 -2.88266692e-05 -5.93287041e-05
      2.48950460e-06 -1.49048152e-04 -7.72066778e-05 -1.03166698e-04
      -6.16186881e-05 3.51691357e-04 6.77647331e-05 -7.14758562e-06
      2.57387583e-04 1.40630262e-04 -1.46684615e-04 2.06422428e-05
      -1.44487887e-04 -2.40179419e-04 -1.03276594e-04 -1.75023073e-04
      -1.24320475e-04 5.35266518e-05 2.35768093e-05 -1.12798458e-04
      -1.90996449e-04 3.02354136e-04 6.37360563e-06 -2.95333739e-05
      -8.45897521e-05 -1.35970869e-04 9.70866895e-05 8.91681775e-05
      -1.26157165e-05 1.04169567e-05 -2.67587820e-05 6.03631524e-05
      8.40031862e-05 -7.47642989e-05 4.35910406e-05 6.60340957e-05
      -2.71071294e-05 1.43456738e-04 2.82363271e-05 2.27784432e-04
      2.83154895e-06 -1.68287646e-04 -2.17077904e-04 2.67556054e-04
      -1.70023020e-04 9.49581736e-05 -7.49260362e-05 -4.01256002e-05
      -3.41970954e-05 -2.18181071e-04 -8.52630765e-05 -7.41299955e-05
      -1.18412390e-04 -1.70866463e-06 5.42499947e-06 4.96612774e-05
      3.02672179e-05 -2.57680786e-05 3.35205477e-05 1.36494476e-04
      -7.24563643e-06 4.46765662e-05 -7.80306254e-06 1.27967742e-05
      -5.86988281e-05 -6.66726482e-05 2.93134544e-05 1.58191760e-04
      -6.59453508e-05 4.21064979e-05 1.25545019e-04 7.26221915e-05
      -1.24858474e-04 -9.24540582e-05 2.53519043e-04 1.87162601e-04
      1.21560937e-04 3.11283911e-05 -1.91223196e-04 1.38314543e-04
      6.98277581e-05 -1.45766404e-04 9.43664054e-05 -8.16315151e-05
      1.91445753e-04 -1.55741145e-04 -3.72039358e-06 5.67705183e-06
      -2.75635266e-05 1.19259450e-04 1.15468589e-04 7.92358042e-05
      -3.51956660e-05 2.07392746e-04 -7.30945249e-05 -6.57168130e-05</_>
    <_>
      3.75774034e-05 -2.76242599e-06 -1.70394160e-05 2.33598694e-05
      6.28098933e-05 1.16412572e-04 -9.17914949e-05 4.33427886e-05
      -8.64365866e-05 -1.34720351e-04 2.82315923e-05 -2.03767740e-05
      1.23822583e-05 6.44688698e-05 1.74893958e-05 -2.98881491e-06
      -1.20803248e-04 3.36241737e-06 1.23650152e-05 -4.90250859e-05
      1.62366676e-04 -5.79437146e-05 -4.64954683e-05 1.03268292e-04
      9.11651659e-05 7.26761355e-05 3.64472908e-05 -2.73650967e-05
      -7.43369528e-05 6.63223254e-05 -1.27901149e-05 -5.03541632e-05
      -1.65637408e-04 4.03097765e-05 -1.71326072e-04 -1.16063646e-04
      -3.23970016e-05 2.03639560e-04 -3.29312024e-05 3.73374205e-05
      1.64914454e-04 2.64906630e-05 -2.57332449e-05 -8.11113568e-05
      -1.02809776e-04 -6.00473595e-06 -6.42357772e-05 5.01023569e-05
      2.22736594e-06 4.64370023e-05 -1.82432268e-05 -8.38231426e-05
      -2.76760056e-05 1.74916786e-04 1.49902990e-04 -4.42278943e-05
      2.07895544e-04 -4.16124822e-05 -6.36014374e-06 7.22681798e-05
      9.17469952e-05 1.81719224e-05 -2.46454601e-05 1.16557467e-05
      7.38821327e-05 -1.93473650e-04 7.34788409e-05 3.07626615e-05
      -8.89545772e-05 1.43770623e-04 9.26993671e-05 3.28347851e-05
      1.62029100e-04 -2.73278802e-05 1.00997146e-04 6.51335868e-05
      -5.14964522e-05 1.73633671e-04 1.14124032e-05 9.17877478e-05
      1.24343578e-05 -2.15626951e-05 1.27843494e-04 -8.06543321e-05
      -1.23257472e-04 -5.01274008e-05 4.35827569e-05 1.24120852e-04
      7.76333472e-05 -1.07067448e-04 -1.35233655e-04 5.55521037e-05
      -1.66949212e-05 6.82761674e-05 -1.99222035e-04 4.67793325e-05
      9.77098625e-06 8.73679892e-05 8.22238799e-05 2.54034712e-05
      -5.57929125e-05 1.40276345e-04 1.09090233e-05 2.79575412e-04
      -1.35343842e-04 -1.58418698e-04 9.73113783e-05 1.23218124e-04
      1.59555741e-04 3.17101039e-05 -1.78145256e-05 5.12214574e-05
      6.66327978e-05 -1.35496783e-04 7.51075049e-07 -4.60346564e-05
      4.37962663e-05 1.47067214e-04 2.16885310e-05 -1.34704867e-04
      4.16011644e-05 7.88214893e-05 -2.10039707e-05 1.71012289e-04
      -3.02120134e-05 1.55506015e-04 -1.44296966e-04 -1.15922448e-04</_>
    <_>
      1.98604339e-05 -2.29727593e-05 2.00706654e-05 -1.20798955e-04
      1.10444373e-04 3.21783664e-05 -1.02600620e-06 -2.27654255e-05
      -1.38068994e-04 -1.10779903e-04 -2.03713680e-05 1.19275537e-04
      -6.45498085e-06 1.26020735e-04 -2.05811539e-05 -1.22153942e-04
      -1.20974233e-04 6.48506102e-05 -9.41791950e-05 -5.32851573e-06
      6.19071216e-05 -1.11744295e-04 -7.27324514e-05 1.84864664e-04
      9.26010616e-05 -3.74633528e-05 3.75836607e-05 7.99450499e-05
      -3.82910803e-05 8.56301049e-05 2.06213335e-05 2.03534164e-05
      -1.78893795e-04 1.04493440e-04 -1.20368080e-04 -5.00382848e-05
      1.76178874e-05 -2.34918680e-05 -4.84084849e-05 4.18660784e-05
      4.37689914e-06 -5.67161114e-05 8.01211499e-05 -7.83609721e-05
      -1.79375511e-05 1.71825304e-04 1.90654237e-06 1.58293406e-04
      9.74985451e-05 -2.67886685e-06 -5.60339686e-05 1.32592795e-05
      1.26983985e-04 -5.07254626e-05 1.67868726e-04 -1.10853071e-05
      2.84663518e-04 2.02293668e-05 -4.64350705e-05 2.63318034e-05
      1.25008213e-04 1.65497950e-05 -1.07624965e-06 -4.53358407e-05
      -1.28797883e-05 -1.57726681e-04 4.01070502e-05 -1.04434621e-05
      -2.72485067e-05 4.12311274e-05 7.73533538e-05 -8.26360119e-05
      1.54334863e-04 8.28693519e-05 2.79379281e-04 -1.44491569e-04
      4.11841320e-05 1.13711038e-04 7.76988454e-05 1.21108242e-04
      3.07740229e-05 1.25034145e-04 2.17375884e-04 -4.19422440e-06
      -5.17199151e-05 -9.09773298e-05 5.19692258e-05 8.76542326e-05
      5.77605533e-05 -1.12025322e-04 -1.08535234e-04 -8.65279708e-06
      -2.13349049e-05 -1.90293872e-06 -1.74780827e-04 5.08822450e-05
      6.85684936e-05 1.56562921e-04 6.52877934e-05 -1.07374362e-04
      -1.62482411e-05 1.05044033e-04 -8.82604145e-05 2.68581440e-04
      -5.81095046e-05 -1.22224563e-04 -2.76902283e-05 3.64988846e-05
      8.65656693e-05 -5.90423360e-06 1.06851643e-04 -4.99072703e-05
      1.32750267e-06 -3.17878839e-05 -5.55607912e-05 -1.64671310e-05
      -1.03479273e-04 2.46996904e-04 8.65825950e-06 -1.66235259e-04
      3.90433379e-05 -8.10166284e-07 -1.47788436e-04 1.44223159e-04
      -1.02345257e-05 2.34637500e-05 -6.91016976e-05 -7.40764590e-05</_></support_vectors>
  <uncompressed_sv_total>96</uncompressed_sv_total>
  <uncompressed_support_vectors>
    <_>
      7.69949341e+01 3.46906708e+02 -2.98643551e+01 -3.25286285e+02
      8.60061111e+01 -5.36753702e+00 6.22400589e+01 -1.96961746e+01
      5.74812279e+01 -1.43871399e+02 1.19187098e+01 -1.87529404e+02
      -6.98589706e+01 7.86003494e+01 8.62191391e+01 1.59205002e+02
      1.49853897e+02 -7.56804962e+01 -2.69520397e+01 2.13029007e+02
      3.30472229e+02 6.39654922e+01 -2.73459969e+01 1.13314140e+02
      1.55280876e+01 9.75104446e+01 7.98888092e+01 -1.76038857e+01
      -4.17161522e+01 -8.26642532e+01 -1.38239655e+02 1.52233185e+02
      -6.28690605e+01 -1.17535927e+02 -5.08545151e+01 2.00118881e+02
      2.70731621e+01 2.39723846e+02 9.88266602e+01 -1.46374680e+02
      -3.62969446e+00 -8.71710815e+01 -1.35472593e+01 7.57591486e+00
      2.59287323e+02 1.38833633e+02 -1.07655144e+01 -1.44325684e+02
      -3.24927582e+02 -1.59556160e+01 1.09956711e+02 2.58941402e+01
      5.48060837e+01 -2.09513474e+02 -3.19181461e+01 -4.02082672e+01
